{"learner":{"attributes":{"best_iteration":"696","best_score":"641538.1334405201","scikit_learn":"{\"_estimator_type\": \"regressor\"}"},"feature_names":[],"feature_types":[],"gradient_booster":{"model":{"gbtree_model_param":{"num_parallel_tree":"1","num_trees":"700"},"iteration_indptr":[0,1,2,3,4,5,6,7,8,9,10,11,12,13,14,15,16,17,18,19,20,21,22,23,24,25,26,27,28,29,30,31,32,33,34,35,36,37,38,39,40,41,42,43,44,45,46,47,48,49,50,51,52,53,54,55,56,57,58,59,60,61,62,63,64,65,66,67,68,69,70,71,72,73,74,75,76,77,78,79,80,81,82,83,84,85,86,87,88,89,90,91,92,93,94,95,96,97,98,99,100,101,102,103,104,105,106,107,108,109,110,111,112,113,114,115,116,117,118,119,120,121,122,123,124,125,126,127,128,129,130,131,132,133,134,135,136,137,138,139,140,141,142,143,144,145,146,147,148,149,150,151,152,153,154,155,156,157,158,159,160,161,162,163,164,165,166,167,168,169,170,171,172,173,174,175,176,177,178,179,180,181,182,183,184,185,186,187,188,189,190,191,192,193,194,195,196,197,198,199,200,201,202,203,204,205,206,207,208,209,210,211,212,213,214,215,216,217,218,219,220,221,222,223,224,225,226,227,228,229,230,231,232,233,234,235,236,237,238,239,240,241,242,243,244,245,246,247,248,249,250,251,252,253,254,255,256,257,258,259,260,261,262,263,264,265,266,267,268,269,270,271,272,273,274,275,276,277,278,279,280,281,282,283,284,285,286,287,288,289,290,291,292,293,294,295,296,297,298,299,300,301,302,303,304,305,306,307,308,309,310,311,312,313,314,315,316,317,318,319,320,321,322,323,324,325,326,327,328,329,330,331,332,333,334,335,336,337,338,339,340,341,342,343,344,345,346,347,348,349,350,351,352,353,354,355,356,357,358,359,360,361,362,363,364,365,366,367,368,369,370,371,372,373,374,375,376,377,378,379,380,381,382,383,384,385,386,387,388,389,390,391,392,393,394,395,396,397,398,399,400,401,402,403,404,405,406,407,408,409,410,411,412,413,414,415,416,417,418,419,420,421,422,423,424,425,426,427,428,429,430,431,432,433,434,435,436,437,438,439,440,441,442,443,444,445,446,447,448,449,450,451,452,453,454,455,456,457,458,459,460,461,462,463,464,465,466,467,468,469,470,471,472,473,474,475,476,477,478,479,480,481,482,483,484,485,486,487,488,489,490,491,492,493,494,495,496,497,498,499,500,501,502,503,504,505,506,507,508,509,510,511,512,513,514,515,516,517,518,519,520,521,522,523,524,525,526,527,528,529,530,531,532,533,534,535,536,537,538,539,540,541,542,543,544,545,546,547,548,549,550,551,552,553,554,555,556,557,558,559,560,561,562,563,564,565,566,567,568,569,570,571,572,573,574,575,576,577,578,579,580,581,582,583,584,585,586,587,588,589,590,591,592,593,594,595,596,597,598,599,600,601,602,603,604,605,606,607,608,609,610,611,612,613,614,615,616,617,618,619,620,621,622,623,624,625,626,627,628,629,630,631,632,633,634,635,636,637,638,639,640,641,642,643,644,645,646,647,648,649,650,651,652,653,654,655,656,657,658,659,660,661,662,663,664,665,666,667,668,669,670,671,672,673,674,675,676,677,678,679,680,681,682,683,684,685,686,687,688,689,690,691,692,693,694,695,696,697,698,699,700],"tree_info":[0,0,0,0,0,0,0,0,0,0,0,0,0,0,0,0,0,0,0,0,0,0,0,0,0,0,0,0,0,0,0,0,0,0,0,0,0,0,0,0,0,0,0,0,0,0,0,0,0,0,0,0,0,0,0,0,0,0,0,0,0,0,0,0,0,0,0,0,0,0,0,0,0,0,0,0,0,0,0,0,0,0,0,0,0,0,0,0,0,0,0,0,0,0,0,0,0,0,0,0,0,0,0,0,0,0,0,0,0,0,0,0,0,0,0,0,0,0,0,0,0,0,0,0,0,0,0,0,0,0,0,0,0,0,0,0,0,0,0,0,0,0,0,0,0,0,0,0,0,0,0,0,0,0,0,0,0,0,0,0,0,0,0,0,0,0,0,0,0,0,0,0,0,0,0,0,0,0,0,0,0,0,0,0,0,0,0,0,0,0,0,0,0,0,0,0,0,0,0,0,0,0,0,0,0,0,0,0,0,0,0,0,0,0,0,0,0,0,0,0,0,0,0,0,0,0,0,0,0,0,0,0,0,0,0,0,0,0,0,0,0,0,0,0,0,0,0,0,0,0,0,0,0,0,0,0,0,0,0,0,0,0,0,0,0,0,0,0,0,0,0,0,0,0,0,0,0,0,0,0,0,0,0,0,0,0,0,0,0,0,0,0,0,0,0,0,0,0,0,0,0,0,0,0,0,0,0,0,0,0,0,0,0,0,0,0,0,0,0,0,0,0,0,0,0,0,0,0,0,0,0,0,0,0,0,0,0,0,0,0,0,0,0,0,0,0,0,0,0,0,0,0,0,0,0,0,0,0,0,0,0,0,0,0,0,0,0,0,0,0,0,0,0,0,0,0,0,0,0,0,0,0,0,0,0,0,0,0,0,0,0,0,0,0,0,0,0,0,0,0,0,0,0,0,0,0,0,0,0,0,0,0,0,0,0,0,0,0,0,0,0,0,0,0,0,0,0,0,0,0,0,0,0,0,0,0,0,0,0,0,0,0,0,0,0,0,0,0,0,0,0,0,0,0,0,0,0,0,0,0,0,0,0,0,0,0,0,0,0,0,0,0,0,0,0,0,0,0,0,0,0,0,0,0,0,0,0,0,0,0,0,0,0,0,0,0,0,0,0,0,0,0,0,0,0,0,0,0,0,0,0,0,0,0,0,0,0,0,0,0,0,0,0,0,0,0,0,0,0,0,0,0,0,0,0,0,0,0,0,0,0,0,0,0,0,0,0,0,0,0,0,0,0,0,0,0,0,0,0,0,0,0,0,0,0,0,0,0,0,0,0,0,0,0,0,0,0,0,0,0,0,0,0,0,0,0,0,0,0,0,0,0,0,0,0,0,0,0,0,0,0,0,0,0,0,0,0,0,0,0,0,0,0,0,0,0,0,0,0,0,0,0,0,0,0,0,0,0,0,0,0,0,0,0,0,0,0,0,0,0,0,0,0,0,0,0,0,0,0,0,0,0,0,0,0,0,0,0,0,0,0,0,0,0,0,0,0,0,0,0,0,0,0,0,0,0,0,0,0,0,0,0,0,0,0,0,0,0,0,0,0,0,0,0,0,0,0,0,0,0],"trees":[{"base_weights":[1.31107656E8,1.23444376E8,4.9974726E8,1.17465464E8,1.5500824E8,1.81413E7,2.499084E7,1.10195416E8,1.2558074E8,1.4919691E8,1.1090369E7,1.0502348E8,1.1373684E8,1.2091684E8,1.2998725E8,6.4292915E6,7.3637995E6,4.522616E6,4.875872E6,4.949622E6,5.3810005E6,5.3133535E6,5.71815E6,5.66924E6,6.071303E6],"categories":[],"categories_nodes":[],"categories_segments":[],"categories_sizes":[],"default_left":[0,0,0,0,0,0,0,0,0,0,0,0,0,0,0,0,0,0,0,0,0,0,0,0,0],"id":0,"left_children":[1,3,5,7,9,-1,-1,11,13,15,-1,17,19,21,23,-1,-1,-1,-1,-1,-1,-1,-1,-1,-1],"loss_changes":[2.060826E19,1.3319572E18,5.3012733E17,3.395204E17,5.6099502E17,0E0,0E0,4.4165183E16,3.958242E16,7.0010303E16,0E0,6.7037224E15,2.537233E16,6.4585313E15,8.153978E15,0E0,0E0,0E0,0E0,0E0,0E0,0E0,0E0,0E0,0E0],"parents":[2147483647,0,0,1,1,2,2,3,3,4,4,7,7,8,8,9,9,11,11,12,12,13,13,14,14],"right_children":[2,4,6,8,10,-1,-1,12,14,16,-1,18,20,22,24,-1,-1,-1,-1,-1,-1,-1,-1,-1,-1],"split_conditions":[3.5428612E0,1.07644714E-1,6.4860306E0,-2.2599342E-1,1.3940659E0,1.81413E7,2.499084E7,-3.9451078E-1,-2.3405212E-1,4.010973E-1,1.1090369E7,1.4786491E-1,2.936923E-1,-3.2447048E-2,-7.999944E-2,6.4292915E6,7.3637995E6,4.522616E6,4.875872E6,4.949622E6,5.3810005E6,5.3133535E6,5.71815E6,5.66924E6,6.071303E6],"split_indices":[0,0,0,0,0,0,0,0,1,0,0,1,1,0,0,0,0,0,0,0,0,0,0,0,0],"split_type":[0,0,0,0,0,0,0,0,0,0,0,0,0,0,0,0,0,0,0,0,0,0,0,0,0],"sum_hessian":[7.32E3,7.1725E3,1.475E2,6.035E3,1.1375E3,5.75E1,9E1,3.1925E3,2.8425E3,1.0725E3,6.5E1,1.3125E3,1.88E3,1.3975E3,1.445E3,7.55E2,3.175E2,5.725E2,7.4E2,1.16E3,7.2E2,9.725E2,4.25E2,8.15E2,6.3E2],"tree_param":{"num_deleted":"0","num_feature":"14","num_nodes":"25","size_leaf_vector":"1"}},{"base_weights":[1.2512769E8,1.1767349E8,4.365158E8,1.11458536E8,1.4323938E8,1.4095379E7,2.2609266E7,1.0503581E8,1.1869207E8,1.3817032E8,1.9735872E8,1.02017576E8,1.1014537E8,1.1416969E8,5.5258545E6,5.9491365E6,6.679389E6,7.859056E6,9.687338E6,4.4102865E6,4.737928E6,4.6923125E6,5.1143145E6,4.9446805E6,5.267133E6],"categories":[],"categories_nodes":[],"categories_segments":[],"categories_sizes":[],"default_left":[0,0,0,0,0,0,0,0,0,0,0,0,0,0,0,0,0,0,0,0,0,0,0,0,0],"id":1,"left_children":[1,3,5,7,9,-1,-1,11,13,15,17,19,21,23,-1,-1,-1,-1,-1,-1,-1,-1,-1,-1,-1],"loss_changes":[1.7227905E19,1.1369654E18,1.222635E18,2.5723294E17,3.5647486E17,0E0,0E0,3.453566E16,3.4150831E16,5.6119073E16,3.1841857E15,1.3504202E16,9.271082E15,8.994005E14,0E0,0E0,0E0,0E0,0E0,0E0,0E0,0E0,0E0,0E0,0E0],"parents":[2147483647,0,0,1,1,2,2,3,3,4,4,7,7,8,8,9,9,10,10,11,11,12,12,13,13],"right_children":[2,4,6,8,10,-1,-1,12,14,16,18,20,22,24,-1,-1,-1,-1,-1,-1,-1,-1,-1,-1,-1],"split_conditions":[2.5630653E0,4.92367E-2,4.8548565E0,-2.3655406E-1,7.215257E-1,1.4095379E7,2.2609266E7,3.15813E-1,-2.5211498E-1,2.7611852E-1,1.3940659E0,-3.537398E-1,-4.1016844E-1,-1.417973E-1,5.5258545E6,5.9491365E6,6.679389E6,7.859056E6,9.687338E6,4.4102865E6,4.737928E6,4.6923125E6,5.1143145E6,4.9446805E6,5.267133E6],"split_indices":[0,0,0,0,0,0,0,13,6,0,0,11,11,0,0,0,0,0,0,0,0,0,0,0,0],"split_type":[0,0,0,0,0,0,0,0,0,0,0,0,0,0,0,0,0,0,0,0,0,0,0,0,0],"sum_hessian":[7.4475E3,7.275E3,1.725E2,5.8575E3,1.4175E3,6.25E1,1.1E2,3.1125E3,2.745E3,1.3E3,1.175E2,1.9725E3,1.14E3,1.3225E3,1.4225E3,8.325E2,4.675E2,5.75E1,6E1,9.025E2,1.07E3,4.4E2,7E2,5.5E2,7.725E2],"tree_param":{"num_deleted":"0","num_feature":"14","num_nodes":"25","size_leaf_vector":"1"}},{"base_weights":[1.1970883E8,1.1279174E8,4.6250835E8,1.0844742E8,1.5425997E8,1.6913186E7,2.2942122E7,1.01855384E8,1.1806601E8,1.4306563E8,2.277316E8,9.604239E7,1.0517422E8,1.1430375E8,1.2348439E8,6.1524615E6,6.955315E6,8.3447355E6,1.093949E7,4.115942E6,4.4566575E6,4.551552E6,4.92656E6,4.986881E6,5.372649E6,5.2519365E6,5.6813185E6],"categories":[],"categories_nodes":[],"categories_segments":[],"categories_sizes":[],"default_left":[0,0,0,0,0,0,0,0,0,0,0,0,0,0,0,0,0,0,0,0,0,0,0,0,0,0,0],"id":2,"left_children":[1,3,5,7,9,-1,-1,11,13,15,17,19,21,23,25,-1,-1,-1,-1,-1,-1,-1,-1,-1,-1,-1,-1],"loss_changes":[1.7510646E19,1.2889355E18,3.6954586E17,4.0286106E17,5.252807E17,0E0,0E0,6.338025E16,3.7471356E16,1.8311267E16,3.5558206E15,8.813685E15,2.9702207E16,1.2329923E16,2.5387723E15,0E0,0E0,0E0,0E0,0E0,0E0,0E0,0E0,0E0,0E0,0E0,0E0],"parents":[2147483647,0,0,1,1,2,2,3,3,4,4,7,7,8,8,9,9,10,10,11,11,12,12,13,13,14,14],"right_children":[2,4,6,8,10,-1,-1,12,14,16,18,20,22,24,26,-1,-1,-1,-1,-1,-1,-1,-1,-1,-1,-1,-1],"split_conditions":[3.5428612E0,2.2915627E-1,6.4860306E0,-1.7187244E-1,1.3940659E0,1.6913186E7,2.2942122E7,-3.8674995E-1,-5.202581E-3,5.036023E-1,1.5948211E0,5.0538115E-2,-6.0187917E-2,6.87443E-3,-5.7681316E-1,6.1524615E6,6.955315E6,8.3447355E6,1.093949E7,4.115942E6,4.4566575E6,4.551552E6,4.92656E6,4.986881E6,5.372649E6,5.2519365E6,5.6813185E6],"split_indices":[0,0,0,0,0,0,0,0,0,0,0,1,1,1,1,0,0,0,0,0,0,0,0,0,0,0,0],"split_type":[0,0,0,0,0,0,0,0,0,0,0,0,0,0,0,0,0,0,0,0,0,0,0,0,0,0,0],"sum_hessian":[7.41E3,7.265E3,1.45E2,6.58E3,6.85E2,5.5E1,9E1,3.9125E3,2.6675E3,5.975E2,8.75E1,1.435E3,2.4775E3,1.59E3,1.0775E3,3.95E2,2.025E2,2.75E1,6E1,5.825E2,8.525E2,1.295E3,1.1825E3,9.6E2,6.3E2,3.275E2,7.5E2],"tree_param":{"num_deleted":"0","num_feature":"14","num_nodes":"27","size_leaf_vector":"1"}},{"base_weights":[1.14250776E8,1.072239E8,4.0514346E8,1.0159999E8,1.3081543E8,1.2837187E7,4.6032755E8,9.36458E7,1.0652794E8,1.2642138E8,8.123588E6,1.687931E7,2.17836E7,8.998833E7,9.6771544E7,1.02342264E8,1.1051994E8,5.4237965E6,6.1124315E6,3.7995218E6,4.1266978E6,3.9980392E6,4.430327E6,4.4458355E6,4.82997E6,4.828175E6,5.209587E6],"categories":[],"categories_nodes":[],"categories_segments":[],"categories_sizes":[],"default_left":[0,0,0,0,0,0,0,0,0,0,0,0,0,0,0,0,0,0,0,0,0,0,0,0,0,0,0],"id":3,"left_children":[1,3,5,7,9,-1,11,13,15,17,-1,-1,-1,19,21,23,25,-1,-1,-1,-1,-1,-1,-1,-1,-1,-1],"loss_changes":[1.5255266E19,9.544113E17,1.0079927E18,2.197352E17,2.7921438E17,0E0,2.2410246E16,1.5516308E16,4.7270204E16,5.2090463E16,0E0,0E0,0E0,8.4662395E14,5.5998127E15,1.9014954E16,1.6409112E16,0E0,0E0,0E0,0E0,0E0,0E0,0E0,0E0,0E0,0E0],"parents":[2147483647,0,0,1,1,2,2,3,3,4,4,6,6,7,7,8,8,9,9,13,13,14,14,15,15,16,16],"right_children":[2,4,6,8,10,-1,12,14,16,18,-1,-1,-1,20,22,24,26,-1,-1,-1,-1,-1,-1,-1,-1,-1,-1],"split_conditions":[2.5630653E0,4.92367E-2,4.8548565E0,-3.0968887E-1,7.215257E-1,1.2837187E7,6.4860306E0,1.4786491E-1,-1.608588E-1,2.7611852E-1,8.123588E6,1.687931E7,2.17836E7,-4.63115E-1,-5.334709E-1,1.1182946E-1,1.942827E-2,5.4237965E6,6.1124315E6,3.7995218E6,4.1266978E6,3.9980392E6,4.430327E6,4.4458355E6,4.82997E6,4.828175E6,5.209587E6],"split_indices":[0,0,0,0,0,0,0,1,0,0,0,0,0,0,0,1,1,0,0,0,0,0,0,0,0,0,0],"split_type":[0,0,0,0,0,0,0,0,0,0,0,0,0,0,0,0,0,0,0,0,0,0,0,0,0,0,0],"sum_hessian":[7.4875E3,7.3125E3,1.75E2,5.91E3,1.4025E3,5.75E1,1.175E2,2.27E3,3.64E3,1.2925E3,1.1E2,3E1,8.75E1,1.0625E3,1.2075E3,1.7925E3,1.8475E3,8.05E2,4.875E2,2.65E2,7.975E2,2.225E2,9.85E2,1.0625E3,7.3E2,1.16E3,6.875E2],"tree_param":{"num_deleted":"0","num_feature":"14","num_nodes":"27","size_leaf_vector":"1"}},{"base_weights":[1.0960083E8,1.0249675E8,3.9247747E8,9.816332E7,1.30737624E8,1.2199035E7,4.3946698E8,9.2279416E7,1.0561341E8,1.2415656E8,1.729702E8,1.638805E7,2.0831652E7,8.755691E7,9.540966E7,1.0146861E8,1.09393896E8,5.364296E6,5.940353E6,6.9365935E6,8.484094E6,3.7426048E6,4.0479165E6,9.260925E7,4.558842E6,4.43777E6,4.7788055E6,4.780345E6,5.1325945E6,3.8974368E6,4.225086E6],"categories":[],"categories_nodes":[],"categories_segments":[],"categories_sizes":[],"default_left":[0,0,0,0,0,0,0,0,0,0,0,0,0,0,0,0,0,0,0,0,0,0,0,0,0,0,0,0,0,0,0],"id":4,"left_children":[1,3,5,7,9,-1,11,13,15,17,19,-1,-1,21,23,25,27,-1,-1,-1,-1,-1,-1,29,-1,-1,-1,-1,-1,-1,-1],"loss_changes":[1.4850136E19,8.698632E17,8.905956E17,2.634254E17,2.406853E17,0E0,2.4998496E16,4.1950767E16,2.9946299E16,1.3517396E16,2.1011667E15,0E0,0E0,5.916472E15,2.3445986E16,5.409597E15,6.542094E15,0E0,0E0,0E0,0E0,0E0,0E0,1.3040208E15,0E0,0E0,0E0,0E0,0E0,0E0,0E0],"parents":[2147483647,0,0,1,1,2,2,3,3,4,4,6,6,7,7,8,8,9,9,10,10,13,13,14,14,15,15,16,16,23,23],"right_children":[2,4,6,8,10,-1,12,14,16,18,20,-1,-1,22,24,26,28,-1,-1,-1,-1,-1,-1,30,-1,-1,-1,-1,-1,-1,-1],"split_conditions":[2.5630653E0,1.4712508E-1,4.8548565E0,-2.003028E-1,7.215257E-1,1.2199035E7,6.4860306E0,-3.8674995E-1,-2.5191367E-1,3.656023E-1,1.3940659E0,1.638805E7,2.0831652E7,-7.114235E-2,5.011887E-1,-2.732437E-2,-4.0647384E-2,5.364296E6,5.940353E6,6.9365935E6,8.484094E6,3.7426048E6,4.0479165E6,-1.0955688E0,4.558842E6,4.43777E6,4.7788055E6,4.780345E6,5.1325945E6,3.8974368E6,4.225086E6],"split_indices":[0,0,0,0,0,0,0,0,1,0,0,0,0,1,6,0,0,0,0,0,0,0,0,1,0,0,0,0,0,0,0],"split_type":[0,0,0,0,0,0,0,0,0,0,0,0,0,0,0,0,0,0,0,0,0,0,0,0,0,0,0,0,0,0,0],"sum_hessian":[7.4125E3,7.2325E3,1.8E2,6.275E3,9.575E2,5.25E1,1.275E2,3.515E3,2.76E3,8.325E2,1.25E2,3.5E1,9.25E1,1.415E3,2.1E3,1.3325E3,1.4275E3,5.225E2,3.1E2,6.25E1,6.25E1,5.15E2,9E2,1.4375E3,6.625E2,8.475E2,4.85E2,8.675E2,5.6E2,2.675E2,1.17E3],"tree_param":{"num_deleted":"0","num_feature":"14","num_nodes":"31","size_leaf_vector":"1"}},{"base_weights":[1.044441E8,9.767612E7,3.70546E8,9.269362E7,1.1921485E8,1.1813879E7,4.2039146E8,8.569059E7,9.735968E7,1.1494758E8,7.408521E6,1.568748E7,1.9862292E7,8.277802E7,8.935785E7,9.298194E7,1.00653656E8,1.099688E8,5.5529995E6,3.5159858E6,3.8046288E6,3.7926708E6,4.1086012E6,3.9909332E6,4.3226365E6,4.364786E6,4.695218E6,4.7267185E6,5.141194E6],"categories":[],"categories_nodes":[],"categories_segments":[],"categories_sizes":[],"default_left":[0,0,0,0,0,0,0,0,0,0,0,0,0,0,0,0,0,0,0,0,0,0,0,0,0,0,0,0,0],"id":5,"left_children":[1,3,5,7,9,-1,11,13,15,17,-1,-1,-1,19,21,23,25,27,-1,-1,-1,-1,-1,-1,-1,-1,-1,-1,-1],"loss_changes":[1.3326433E19,7.638439E17,8.566185E17,1.8232981E17,2.4014214E17,0E0,1.7548206E15,1.6370629E16,3.9584618E16,3.6051887E16,0E0,0E0,0E0,3.0335526E15,9.439307E14,9.97477E15,1.4762043E16,2.3485568E15,0E0,0E0,0E0,0E0,0E0,0E0,0E0,0E0,0E0,0E0,0E0],"parents":[2147483647,0,0,1,1,2,2,3,3,4,4,6,6,7,7,8,8,9,9,13,13,14,14,15,15,16,16,17,17],"right_children":[2,4,6,8,10,-1,12,14,16,18,-1,-1,-1,20,22,24,26,28,-1,-1,-1,-1,-1,-1,-1,-1,-1,-1,-1],"split_conditions":[2.5630653E0,4.92367E-2,4.8548565E0,-2.975455E-1,7.215257E-1,1.1813879E7,6.4860306E0,1.4775234E-1,-3.5664207E-1,2.7611852E-1,7.408521E6,1.568748E7,1.9862292E7,-4.63115E-1,-4.7051057E-1,-1.7413256E-1,-1.4829752E-1,-3.3197927E-1,5.5529995E6,3.5159858E6,3.8046288E6,3.7926708E6,4.1086012E6,3.9909332E6,4.3226365E6,4.364786E6,4.695218E6,4.7267185E6,5.141194E6],"split_indices":[0,0,0,0,0,0,0,13,1,0,0,0,0,0,0,0,0,1,0,0,0,0,0,0,0,0,0,0,0],"split_type":[0,0,0,0,0,0,0,0,0,0,0,0,0,0,0,0,0,0,0,0,0,0,0,0,0,0,0,0,0],"sum_hessian":[7.4225E3,7.24E3,1.825E2,5.885E3,1.355E3,6E1,1.225E2,2.3625E3,3.5225E3,1.2425E3,1.125E2,3.25E1,9E1,1.3325E3,1.03E3,1.5275E3,1.995E3,7.925E2,4.5E2,3.825E2,9.5E2,3E2,7.3E2,6.525E2,8.75E2,1.0175E3,9.775E2,3.825E2,4.1E2],"tree_param":{"num_deleted":"0","num_feature":"14","num_nodes":"29","size_leaf_vector":"1"}},{"base_weights":[9.993753E7,9.3378776E7,3.5356688E8,8.851227E7,1.13823816E8,1.1224154E7,4.0070765E8,8.320199E7,9.401777E7,1.1037466E8,7.620056E6,1.5010808E7,1.9224752E7,7.999278E7,8.763894E7,3.9932328E6,9.7737816E7,1.0583731E8,5.4705325E6,3.413112E6,8.1890024E7,3.697555E6,4.0591142E6,4.2867545E6,4.5817005E6,4.5928385E6,5.072036E6,3.500058E6,3.7797682E6],"categories":[],"categories_nodes":[],"categories_segments":[],"categories_sizes":[],"default_left":[0,0,0,0,0,0,0,0,0,0,0,0,0,0,0,0,0,0,0,0,0,0,0,0,0,0,0,0,0],"id":6,"left_children":[1,3,5,7,9,-1,11,13,15,17,-1,-1,-1,19,21,-1,23,25,-1,-1,27,-1,-1,-1,-1,-1,-1,-1,-1],"loss_changes":[1.2276382E19,7.0614595E17,7.9417285E17,1.6123678E17,2.4250169E17,0E0,5.35858E16,3.403868E16,4.568471E16,5.0893095E16,0E0,0E0,0E0,6.2617187E15,8.478334E15,0E0,5.162207E15,1.0552013E16,0E0,0E0,2.379893E15,0E0,0E0,0E0,0E0,0E0,0E0,0E0,0E0],"parents":[2147483647,0,0,1,1,2,2,3,3,4,4,6,6,7,7,8,8,9,9,13,13,14,14,16,16,17,17,20,20],"right_children":[2,4,6,8,10,-1,12,14,16,18,-1,-1,-1,20,22,-1,24,26,-1,-1,28,-1,-1,-1,-1,-1,-1,-1,-1],"split_conditions":[2.5110753E0,3.4993697E-2,4.6966624E0,-2.490787E-1,9.8733604E-1,1.1224154E7,-6.982891E-1,3.15813E-1,-3.2691488E-1,3.285512E-1,7.620056E6,1.5010808E7,1.9224752E7,-4.077957E-1,-4.2007318E-1,3.9932328E6,7.9076385E-1,2.3417312E-1,5.4705325E6,3.413112E6,-8.200335E-1,3.697555E6,4.0591142E6,4.2867545E6,4.5817005E6,4.5928385E6,5.072036E6,3.500058E6,3.7797682E6],"split_indices":[11,11,11,11,11,0,13,13,13,11,0,0,0,11,11,0,13,13,0,0,13,0,0,0,0,0,0,0,0],"split_type":[0,0,0,0,0,0,0,0,0,0,0,0,0,0,0,0,0,0,0,0,0,0,0,0,0,0,0,0,0],"sum_hessian":[7.4025E3,7.2175E3,1.85E2,5.835E3,1.3825E3,6E1,1.25E2,2.98E3,2.855E3,1.305E3,7.75E1,4E1,8.5E1,1.7425E3,1.2375E3,1.1925E3,1.6625E3,9.375E2,3.675E2,5.625E2,1.18E3,4.075E2,8.3E2,1.0525E3,6.1E2,6.175E2,3.2E2,4.15E2,7.65E2],"tree_param":{"num_deleted":"0","num_feature":"14","num_nodes":"29","size_leaf_vector":"1"}},{"base_weights":[9.552562E7,8.977564E7,3.6698528E8,8.5912056E7,1.2098045E8,1.3225142E7,1.8315364E7,8.073589E7,9.342004E7,1.1444392E8,9.046959E6,7.7562584E7,8.485996E7,8.979642E7,9.704106E7,1.1102834E8,6.2130495E6,3.2449145E6,7.918075E7,3.686469E6,4.0269398E6,3.9333022E6,4.272675E6,4.2591535E6,4.6443755E6,4.8203635E6,5.2731375E6,3.3606808E6,3.641164E6],"categories":[],"categories_nodes":[],"categories_segments":[],"categories_sizes":[],"default_left":[0,0,0,0,0,0,0,0,0,0,0,0,0,0,0,0,0,0,0,0,0,0,0,0,0,0,0,0,0],"id":7,"left_children":[1,3,5,7,9,-1,-1,11,13,15,-1,17,19,21,23,25,-1,-1,27,-1,-1,-1,-1,-1,-1,-1,-1,-1,-1],"loss_changes":[1.1555832E19,8.647659E17,3.0609524E17,2.4272819E17,3.903783E17,0E0,0E0,4.2403765E16,2.4132081E16,4.1410906E16,0E0,1.2440974E16,1.375709E16,6.4607303E15,7.51956E15,6.591572E14,0E0,0E0,5.8054214E15,0E0,0E0,0E0,0E0,0E0,0E0,0E0,0E0,0E0,0E0],"parents":[2147483647,0,0,1,1,2,2,3,3,4,4,7,7,8,8,9,9,11,11,12,12,13,13,14,14,15,15,18,18],"right_children":[2,4,6,8,10,-1,-1,12,14,16,-1,18,20,22,24,26,-1,-1,28,-1,-1,-1,-1,-1,-1,-1,-1,-1,-1],"split_conditions":[3.5428612E0,2.09719E-1,6.4860306E0,-1.7413256E-1,1.5948211E0,1.3225142E7,1.8315364E7,-3.1245676E-1,-4.571957E-2,7.215257E-1,9.046959E6,-5.692235E-1,2.074082E-1,2.6394513E-1,2.1493462E-1,4.2293528E-1,6.2130495E6,3.2449145E6,-4.8128584E-1,3.686469E6,4.0269398E6,3.9333022E6,4.272675E6,4.2591535E6,4.6443755E6,4.8203635E6,5.2731375E6,3.3606808E6,3.641164E6],"split_indices":[0,0,0,0,0,0,0,0,0,0,0,1,1,1,1,0,0,0,0,0,0,0,0,0,0,0,0,0,0],"split_type":[0,0,0,0,0,0,0,0,0,0,0,0,0,0,0,0,0,0,0,0,0,0,0,0,0,0,0,0,0],"sum_hessian":[7.4275E3,7.275E3,1.525E2,6.4775E3,7.975E2,5.75E1,9.5E1,3.8425E3,2.635E3,7.4E2,5.75E1,2.185E3,1.6575E3,1.3325E3,1.3025E3,6.525E2,8.75E1,5.125E2,1.6725E3,1.0275E3,6.3E2,9.25E2,4.075E2,9.525E2,3.5E2,4.125E2,2.4E2,4.8E2,1.1925E3],"tree_param":{"num_deleted":"0","num_feature":"14","num_nodes":"29","size_leaf_vector":"1"}},{"base_weights":[9.165412E7,8.593429E7,3.5145853E8,8.23122E7,1.1746105E8,1.2773119E7,1.7468038E7,7.717021E7,8.963202E7,1.08956744E8,1.7596794E8,7.385786E7,8.074085E7,8.574863E7,9.307161E7,4.671421E6,5.270729E6,6.4101395E6,8.508201E6,3.1749148E6,7.6502456E7,7.82298E7,3.8391828E6,3.7629092E6,4.1063975E6,3.936257E6,4.3007545E6,3.201428E6,3.5211575E6,3.3504232E6,3.595396E6],"categories":[],"categories_nodes":[],"categories_segments":[],"categories_sizes":[],"default_left":[0,0,0,0,0,0,0,0,0,0,0,0,0,0,0,0,0,0,0,0,0,0,0,0,0,0,0,0,0,0,0],"id":8,"left_children":[1,3,5,7,9,-1,-1,11,13,15,17,19,21,23,25,-1,-1,-1,-1,-1,27,29,-1,-1,-1,-1,-1,-1,-1,-1,-1],"loss_changes":[1.1110824E19,8.26714E17,2.6799057E17,2.3968914E17,3.5200425E17,0E0,0E0,3.8718202E16,2.6636769E16,1.3217229E16,8.8359503E15,1.1228213E16,1.32821E16,5.9428603E15,9.901102E15,0E0,0E0,0E0,0E0,0E0,3.7152498E15,4.8983243E14,0E0,0E0,0E0,0E0,0E0,0E0,0E0,0E0,0E0],"parents":[2147483647,0,0,1,1,2,2,3,3,4,4,7,7,8,8,9,9,10,10,11,11,12,12,13,13,14,14,20,20,21,21],"right_children":[2,4,6,8,10,-1,-1,12,14,16,18,20,22,24,26,-1,-1,-1,-1,-1,28,30,-1,-1,-1,-1,-1,-1,-1,-1,-1],"split_conditions":[3.5428612E0,2.2915627E-1,6.4860306E0,-1.7413256E-1,1.3940659E0,1.2773119E7,1.7468038E7,-3.3285248E-1,-4.571957E-2,4.7788614E-1,1.5948211E0,1.4786491E-1,3.0547145E-1,3.5893318E-1,-5.7681316E-1,4.671421E6,5.270729E6,6.4101395E6,8.508201E6,3.1749148E6,-5.10761E-1,-8.041822E-1,3.8391828E6,3.7629092E6,4.1063975E6,3.936257E6,4.3007545E6,3.201428E6,3.5211575E6,3.3504232E6,3.595396E6],"split_indices":[0,0,0,0,0,0,0,0,0,0,0,1,6,1,1,0,0,0,0,0,0,1,0,0,0,0,0,0,0,0,0],"split_type":[0,0,0,0,0,0,0,0,0,0,0,0,0,0,0,0,0,0,0,0,0,0,0,0,0,0,0,0,0,0,0],"sum_hessian":[7.5E3,7.34E3,1.6E2,6.5875E3,7.525E2,6E1,1E2,3.8775E3,2.71E3,6.6E2,9.25E1,2.025E3,1.8525E3,1.2875E3,1.4225E3,4.15E2,2.45E2,3E1,6.25E1,9.15E2,1.11E3,1.21E3,6.425E2,9.425E2,3.45E2,4.525E2,9.7E2,2.85E2,8.25E2,3.875E2,8.225E2],"tree_param":{"num_deleted":"0","num_feature":"14","num_nodes":"31","size_leaf_vector":"1"}},{"base_weights":[8.754161E7,8.149537E7,3.1014192E8,7.783844E7,1.0398667E8,9.699923E6,3.5322947E8,7.2749944E7,8.322418E7,9.970813E7,6.5309285E6,1.3217377E7,1.670476E7,6.863471E7,7.4870616E7,7.836822E7,8.526235E7,9.502971E7,4.793899E6,2.9668822E6,3.2388712E6,7.257262E7,3.590242E6,3.3794055E6,3.6478505E6,3.679067E6,3.9786518E6,4.1187785E6,4.556533E6,3.1018282E6,3.3330375E6],"categories":[],"categories_nodes":[],"categories_segments":[],"categories_sizes":[],"default_left":[0,0,0,0,0,0,0,0,0,0,0,0,0,0,0,0,0,0,0,0,0,0,0,0,0,0,0,0,0,0,0],"id":9,"left_children":[1,3,5,7,9,-1,11,13,15,17,-1,-1,-1,19,21,23,25,27,-1,-1,-1,29,-1,-1,-1,-1,-1,-1,-1,-1,-1],"loss_changes":[9.850146E18,5.7826395E17,6.9806894E17,1.6137752E17,1.5800642E17,0E0,9.602035E15,2.1530637E16,2.1486656E16,1.6777998E16,0E0,0E0,0E0,4.183092E15,1.6545451E16,5.9428603E14,1.4376115E16,8.411264E14,0E0,0E0,0E0,1.6674094E15,0E0,0E0,0E0,0E0,0E0,0E0,0E0,0E0,0E0],"parents":[2147483647,0,0,1,1,2,2,3,3,4,4,6,6,7,7,8,8,9,9,13,13,14,14,15,15,16,16,17,17,21,21],"right_children":[2,4,6,8,10,-1,12,14,16,18,-1,-1,-1,20,22,24,26,28,-1,-1,-1,30,-1,-1,-1,-1,-1,-1,-1,-1,-1],"split_conditions":[2.5630653E0,1.4712508E-1,4.8548565E0,-2.2873043E-1,9.3800515E-1,9.699923E6,6.4860306E0,-4.2080227E-1,-6.1922157E-1,3.656023E-1,6.5309285E6,1.3217377E7,1.670476E7,6.4513445E-1,5.011887E-1,-8.718751E-2,-1.00346066E-1,-5.041013E-4,4.793899E6,2.9668822E6,3.2388712E6,-7.312096E-1,3.590242E6,3.3794055E6,3.6478505E6,3.679067E6,3.9786518E6,4.1187785E6,4.556533E6,3.1018282E6,3.3330375E6],"split_indices":[0,0,0,0,0,0,0,0,6,0,0,0,0,6,6,0,0,6,0,0,0,6,0,0,0,0,0,0,0,0,0],"split_type":[0,0,0,0,0,0,0,0,0,0,0,0,0,0,0,0,0,0,0,0,0,0,0,0,0,0,0,0,0,0,0],"sum_hessian":[7.34E3,7.1475E3,1.925E2,6.1525E3,9.95E2,6.25E1,1.3E2,3.1725E3,2.98E3,9.05E2,9E1,3.5E1,9.5E1,1.0925E3,2.08E3,8.95E2,2.085E3,5.475E2,3.575E2,6.175E2,4.75E2,1.43E3,6.5E2,4.2E2,4.75E2,1.0025E3,1.0825E3,3.625E2,1.85E2,4.325E2,9.975E2],"tree_param":{"num_deleted":"0","num_feature":"14","num_nodes":"31","size_leaf_vector":"1"}},{"base_weights":[8.293397E7,7.7747816E7,2.9915814E8,7.3696536E7,9.477815E7,2.3557605E8,1.5910882E7,6.93925E7,7.840799E7,9.1513896E7,1.3048853E8,8.388663E6,1.1504317E7,6.666363E7,7.303429E7,7.488228E7,8.307565E7,8.768307E7,9.830642E7,5.504638E6,6.9882535E6,2.8770795E6,6.8776904E7,3.058935E6,3.3768208E6,3.1457475E6,7.62554E7,3.6739355E6,4.0049205E6,3.8110302E6,4.2642875E6,4.1405382E6,4.6247085E6,2.9529302E6,3.1892575E6,3.336061E6,3.5561028E6],"categories":[],"categories_nodes":[],"categories_segments":[],"categories_sizes":[],"default_left":[0,0,0,0,0,0,0,0,0,0,0,0,0,0,0,0,0,0,0,0,0,0,0,0,0,0,0,0,0,0,0,0,0,0,0,0,0],"id":10,"left_children":[1,3,5,7,9,11,-1,13,15,17,19,-1,-1,21,23,25,27,29,31,-1,-1,-1,33,-1,-1,-1,35,-1,-1,-1,-1,-1,-1,-1,-1,-1,-1],"loss_changes":[8.30802E18,4.926032E17,5.0104085E17,1.1253062E17,1.4783923E17,2.541796E16,0E0,2.4753305E16,3.8509295E16,2.2929215E16,2.282861E14,0E0,0E0,4.9494516E15,7.1330817E15,4.562973E15,1.3881334E15,7.9302276E15,1.3334327E15,0E0,0E0,0E0,9.257888E14,0E0,0E0,0E0,2.7267888E14,0E0,0E0,0E0,0E0,0E0,0E0,0E0,0E0,0E0,0E0],"parents":[2147483647,0,0,1,1,2,2,3,3,4,4,5,5,7,7,8,8,9,9,10,10,13,13,14,14,15,15,16,16,17,17,18,18,22,22,26,26],"right_children":[2,4,6,8,10,12,-1,14,16,18,20,-1,-1,22,24,26,28,30,32,-1,-1,-1,34,-1,-1,-1,36,-1,-1,-1,-1,-1,-1,-1,-1,-1,-1],"split_conditions":[2.5110753E0,3.9325293E-2,6.3630543E0,-2.413557E-1,6.9232583E-1,3.5265238E0,1.5910882E7,3.15813E-1,6.943902E-2,2.7114734E-1,1.6698164E0,8.388663E6,1.1504317E7,-3.7507948E-1,-4.295053E-1,-1.1450852E0,1.4148813E0,3.6982855E-1,-2.9121047E-1,5.504638E6,6.9882535E6,2.8770795E6,-7.2150207E-1,3.058935E6,3.3768208E6,3.1457475E6,-1.03187054E-1,3.6739355E6,4.0049205E6,3.8110302E6,4.2642875E6,4.1405382E6,4.6247085E6,2.9529302E6,3.1892575E6,3.336061E6,3.5561028E6],"split_indices":[11,11,11,11,11,11,0,13,13,11,11,0,0,11,11,13,13,13,13,0,0,0,13,0,0,0,11,0,0,0,0,0,0,0,0,0,0],"split_type":[0,0,0,0,0,0,0,0,0,0,0,0,0,0,0,0,0,0,0,0,0,0,0,0,0,0,0,0,0,0,0,0,0,0,0,0,0],"sum_hessian":[7.4325E3,7.26E3,1.725E2,5.87E3,1.39E3,8.25E1,9E1,3.0775E3,2.7925E3,1.2775E3,1.125E2,2.75E1,5.5E1,1.7725E3,1.305E3,1.6025E3,1.19E3,8.275E2,4.5E2,9E1,2.25E1,7.9E2,9.825E2,3.825E2,9.225E2,3.6E2,1.2425E3,9.725E2,2.175E2,5.925E2,2.35E2,1.975E2,2.525E2,4.075E2,5.75E2,7.225E2,5.2E2],"tree_param":{"num_deleted":"0","num_feature":"14","num_nodes":"37","size_leaf_vector":"1"}},{"base_weights":[7.929534E7,7.462782E7,3.053652E8,7.0934184E7,9.671835E7,1.0894356E7,1.5349051E7,6.6389944E7,7.616545E7,9.148341E7,1.5047586E8,6.247662E7,6.8323096E7,7.433603E7,8.137208E7,8.723478E7,4.4903385E6,5.6254965E6,7.3649465E6,2.5160325E6,2.859661E6,6.6445696E7,3.310753E6,7.208031E7,3.52651E6,3.5318735E6,3.8296598E6,3.789965E6,4.18641E6,2.8249308E6,3.0482468E6,3.0606905E6,3.3064208E6],"categories":[],"categories_nodes":[],"categories_segments":[],"categories_sizes":[],"default_left":[0,0,0,0,0,0,0,0,0,0,0,0,0,0,0,0,0,0,0,0,0,0,0,0,0,0,0,0,0,0,0,0,0],"id":11,"left_children":[1,3,5,7,9,-1,-1,11,13,15,17,19,21,23,25,27,-1,-1,-1,-1,-1,29,-1,31,-1,-1,-1,-1,-1,-1,-1,-1,-1],"loss_changes":[7.879905E18,5.909743E17,2.4265892E17,1.4360721E17,2.7860305E17,0E0,0E0,2.0438822E16,2.0541076E16,2.336902E16,6.0794747E15,3.69216E15,1.6294762E16,1.2986332E16,2.0340965E13,1.841682E15,0E0,0E0,0E0,0E0,0E0,2.8152995E15,0E0,1.9950638E15,0E0,0E0,0E0,0E0,0E0,0E0,0E0,0E0,0E0],"parents":[2147483647,0,0,1,1,2,2,3,3,4,4,7,7,8,8,9,9,10,10,11,11,12,12,13,13,14,14,15,15,21,21,23,23],"right_children":[2,4,6,8,10,-1,-1,12,14,16,18,20,22,24,26,28,-1,-1,-1,-1,-1,30,-1,32,-1,-1,-1,-1,-1,-1,-1,-1,-1],"split_conditions":[3.5428612E0,1.4712508E-1,6.4860306E0,-2.1835841E-1,1.3940659E0,1.0894356E7,1.5349051E7,-4.2080227E-1,4.0284148E-1,4.010973E-1,1.5948211E0,-7.392666E-1,6.830005E-1,-2.732437E-2,-6.854834E-2,1.942827E-2,4.4903385E6,5.6254965E6,7.3649465E6,2.5160325E6,2.859661E6,-7.7064574E-1,3.310753E6,-8.866891E-1,3.52651E6,3.5318735E6,3.8296598E6,3.789965E6,4.18641E6,2.8249308E6,3.0482468E6,3.0606905E6,3.3064208E6],"split_indices":[0,0,0,0,0,0,0,0,1,0,0,1,1,0,0,1,0,0,0,0,0,1,0,1,0,0,0,0,0,0,0,0,0],"split_type":[0,0,0,0,0,0,0,0,0,0,0,0,0,0,0,0,0,0,0,0,0,0,0,0,0,0,0,0,0,0,0,0,0],"sum_hessian":[7.4925E3,7.3425E3,1.5E2,6.295E3,1.0475E3,5.75E1,9.25E1,3.3775E3,2.9175E3,9.575E2,9E1,1.13E3,2.2475E3,2.1725E3,7.45E2,6.425E2,3.15E2,3.5E1,5.5E1,1.675E2,9.625E2,1.6675E3,5.8E2,1.4075E3,7.65E2,4.35E2,3.1E2,4.35E2,2.075E2,4.5E2,1.2175E3,3.75E2,1.0325E3],"tree_param":{"num_deleted":"0","num_feature":"14","num_nodes":"33","size_leaf_vector":"1"}},{"base_weights":[7.593979E7,7.0942136E7,2.6948886E8,6.75049E7,8.902858E7,8.520189E6,1.3939598E7,6.2793244E7,7.167841E7,8.5111144E7,1.2354811E8,6.1213784E7,6.7181544E7,7.004127E7,7.703126E7,3.5273045E6,8.79263E7,4.5456325E6,5.888235E6,5.7885132E7,6.2799656E7,2.8517248E6,3.1254118E6,6.741995E7,7.2918776E7,3.3655352E6,3.675813E6,3.8113468E6,4.224413E6,2.3477522E6,2.647359E6,2.6889808E6,2.9044968E6,2.7940195E6,3.0753015E6,2.99513E6,3.3275522E6],"categories":[],"categories_nodes":[],"categories_segments":[],"categories_sizes":[],"default_left":[0,0,0,0,0,0,0,0,0,0,0,0,0,0,0,0,0,0,0,0,0,0,0,0,0,0,0,0,0,0,0,0,0,0,0,0,0],"id":12,"left_children":[1,3,5,7,9,-1,-1,11,13,15,17,19,21,23,25,-1,27,-1,-1,29,31,-1,-1,33,35,-1,-1,-1,-1,-1,-1,-1,-1,-1,-1,-1,-1],"loss_changes":[7.244999E18,4.482401E17,5.3883546E17,1.15754385E17,1.4508386E17,0E0,0E0,1.5191952E16,2.208369E16,1.1635582E16,3.257578E15,6.9802496E15,1.2638886E15,1.3023715E16,5.049507E14,0E0,4.509097E15,0E0,0E0,1.4321139E14,3.0264058E15,0E0,0E0,1.4249671E15,1.8081469E15,0E0,0E0,0E0,0E0,0E0,0E0,0E0,0E0,0E0,0E0,0E0,0E0],"parents":[2147483647,0,0,1,1,2,2,3,3,4,4,7,7,8,8,9,9,10,10,11,11,12,12,13,13,14,14,16,16,19,19,20,20,23,23,24,24],"right_children":[2,4,6,8,10,-1,-1,12,14,16,18,20,22,24,26,-1,28,-1,-1,30,32,-1,-1,34,36,-1,-1,-1,-1,-1,-1,-1,-1,-1,-1,-1,-1],"split_conditions":[2.5630653E0,1.0220597E-1,4.8548565E0,-2.5906014E-1,7.215257E-1,8.520189E6,1.3939598E7,6.361346E-1,5.195766E-1,-5.6225854E-1,-5.864905E-1,-4.3612516E-1,-4.100281E-1,-1.06069E-1,-6.854834E-2,3.5273045E6,3.656023E-1,4.5456325E6,5.888235E6,-8.702156E-1,-5.552041E-1,2.8517248E6,3.1254118E6,-1.0801328E0,-1.2168357E0,3.3655352E6,3.675813E6,3.8113468E6,4.224413E6,2.3477522E6,2.647359E6,2.6889808E6,2.9044968E6,2.7940195E6,3.0753015E6,2.99513E6,3.3275522E6],"split_indices":[0,0,0,0,0,0,0,13,1,1,10,0,12,0,0,0,0,0,0,1,1,0,0,1,1,0,0,0,0,0,0,0,0,0,0,0,0],"split_type":[0,0,0,0,0,0,0,0,0,0,0,0,0,0,0,0,0,0,0,0,0,0,0,0,0,0,0,0,0,0,0,0,0,0,0,0,0],"sum_hessian":[7.5125E3,7.325E3,1.875E2,6.16E3,1.165E3,6.5E1,1.225E2,2.9025E3,3.2575E3,1.05E3,1.15E2,2.1475E3,7.55E2,2.5075E3,7.5E2,3.2E2,7.3E2,3.25E1,8.25E1,7.075E2,1.44E3,2.95E2,4.6E2,1.3275E3,1.18E3,5.2E2,2.3E2,4.85E2,2.45E2,1.1E2,5.975E2,5.4E2,9E2,2.075E2,1.12E3,1.75E2,1.005E3],"tree_param":{"num_deleted":"0","num_feature":"14","num_nodes":"37","size_leaf_vector":"1"}},{"base_weights":[7.269386E7,6.8116904E7,2.755293E8,6.482367E7,8.7755096E7,8.655383E6,1.3336144E7,6.0178516E7,6.91385E7,8.254806E7,1.2935987E8,5.860876E7,6.445719E7,6.746598E7,7.403297E7,3.4877935E6,8.65277E7,5.0138775E6,6.611182E6,5.5315016E7,6.011731E7,2.7825945E6,3.0691088E6,6.4774492E7,7.019133E7,3.2181438E6,3.514552E6,3.7072632E6,4.1206848E6,2.2367705E6,2.5397112E6,2.5885448E6,2.78235E6,2.68572E6,2.9522895E6,2.8974415E6,3.2072635E6],"categories":[],"categories_nodes":[],"categories_segments":[],"categories_sizes":[],"default_left":[0,0,0,0,0,0,0,0,0,0,0,0,0,0,0,0,0,0,0,0,0,0,0,0,0,0,0,0,0,0,0,0,0,0,0,0,0],"id":13,"left_children":[1,3,5,7,9,-1,-1,11,13,15,17,19,21,23,25,-1,27,-1,-1,29,31,-1,-1,33,35,-1,-1,-1,-1,-1,-1,-1,-1,-1,-1,-1,-1],"loss_changes":[6.881012E18,4.635871E17,2.152492E17,1.1995232E17,2.1274835E17,0E0,0E0,1.569113E16,2.0393742E16,1.0584998E16,1.6166394E16,7.021481E15,2.7570254E15,1.2268351E16,1.5835716E15,0E0,1.578349E15,0E0,0E0,1.11339296E15,2.4238734E15,0E0,0E0,5.1732022E14,1.9367897E15,0E0,0E0,0E0,0E0,0E0,0E0,0E0,0E0,0E0,0E0,0E0,0E0],"parents":[2147483647,0,0,1,1,2,2,3,3,4,4,7,7,8,8,9,9,10,10,11,11,12,12,13,13,14,14,16,16,19,19,20,20,23,23,24,24],"right_children":[2,4,6,8,10,-1,-1,12,14,16,18,20,22,24,26,-1,28,-1,-1,30,32,-1,-1,34,36,-1,-1,-1,-1,-1,-1,-1,-1,-1,-1,-1,-1],"split_conditions":[3.5428612E0,1.4712508E-1,4.8548565E0,-2.4617615E-1,9.3800515E-1,8.655383E6,1.3336144E7,6.361346E-1,4.367795E-1,-3.3197927E-1,1.5948211E0,-4.3612516E-1,-3.58376E-1,-9.2692085E-2,-6.854834E-2,3.4877935E6,3.4168154E-1,5.0138775E6,6.611182E6,-8.3776104E-1,-4.9633914E-1,2.7825945E6,3.0691088E6,-1.0801328E0,-1.1750028E0,3.2181438E6,3.514552E6,3.7072632E6,4.1206848E6,2.2367705E6,2.5397112E6,2.5885448E6,2.78235E6,2.68572E6,2.9522895E6,2.8974415E6,3.2072635E6],"split_indices":[0,0,0,0,0,0,0,13,6,1,0,0,12,0,0,0,0,0,0,1,1,0,0,1,1,0,0,0,0,0,0,0,0,0,0,0,0],"split_type":[0,0,0,0,0,0,0,0,0,0,0,0,0,0,0,0,0,0,0,0,0,0,0,0,0,0,0,0,0,0,0,0,0,0,0,0,0],"sum_hessian":[7.435E3,7.2725E3,1.625E2,6.2325E3,1.04E3,3.5E1,1.275E2,3.01E3,3.2225E3,9.275E2,1.125E2,2.215E3,7.95E2,2.415E3,8.075E2,4.2E2,5.075E2,6E1,5.25E1,7.1E2,1.505E3,4.8E2,3.15E2,1.23E3,1.185E3,5.125E2,2.95E2,2.9E2,2.175E2,1.275E2,5.825E2,6.15E2,8.9E2,1.85E2,1.045E3,1.975E2,9.875E2],"tree_param":{"num_deleted":"0","num_feature":"14","num_nodes":"37","size_leaf_vector":"1"}},{"base_weights":[6.924789E7,6.504589E7,2.6831451E8,6.3416308E7,1.0266533E8,9.602891E6,1.3334498E7,5.9535376E7,7.106129E7,9.2632456E7,6.7267305E6,5.620121E7,6.2481132E7,6.836448E7,7.584917E7,3.9053858E6,4.597584E6,5.1338816E7,5.7267716E7,6.0413464E7,2.9660902E6,6.6219668E7,3.270525E6,3.2414768E6,3.577171E6,9.5124094E5,2.3158352E6,2.3988322E6,2.6304775E6,2.5447402E6,2.7663622E6,2.7431122E6,3.028044E6],"categories":[],"categories_nodes":[],"categories_segments":[],"categories_sizes":[],"default_left":[0,0,0,0,0,0,0,0,0,0,0,0,0,0,0,0,0,0,0,0,0,0,0,0,0,0,0,0,0,0,0,0,0],"id":14,"left_children":[1,3,5,7,9,-1,-1,11,13,15,-1,17,19,21,23,-1,-1,25,27,29,-1,31,-1,-1,-1,-1,-1,-1,-1,-1,-1,-1,-1],"loss_changes":[6.213912E18,4.3977826E17,1.605232E17,2.0264879E17,1.2486164E17,0E0,0E0,4.146918E16,2.413538E16,3.3639558E15,0E0,7.848864E15,1.2668573E16,8.2529343E15,4.7559375E15,0E0,0E0,2.180469E14,4.671275E15,2.1786823E15,0E0,8.562447E14,0E0,0E0,0E0,0E0,0E0,0E0,0E0,0E0,0E0,0E0,0E0],"parents":[2147483647,0,0,1,1,2,2,3,3,4,4,7,7,8,8,9,9,11,11,12,12,13,13,14,14,17,17,18,18,19,19,21,21],"right_children":[2,4,6,8,10,-1,-1,12,14,16,-1,18,20,22,24,-1,-1,26,28,30,-1,32,-1,-1,-1,-1,-1,-1,-1,-1,-1,-1,-1],"split_conditions":[3.5428612E0,4.7788614E-1,6.3630543E0,-1.033094E-1,1.5948211E0,9.602891E6,1.3334498E7,-3.1245676E-1,1.1745865E-1,2.70556E-1,6.7267305E6,-6.790443E-1,2.1493462E-1,1.7224146E-1,-2.4498802E-1,3.9053858E6,4.597584E6,-6.5906096E-1,-4.6664107E-1,-1.015956E0,2.9660902E6,-1.1750028E0,3.270525E6,3.2414768E6,3.577171E6,9.5124094E5,2.3158352E6,2.3988322E6,2.6304775E6,2.5447402E6,2.7663622E6,2.7431122E6,3.028044E6],"split_indices":[0,0,11,0,0,0,0,0,0,7,0,1,1,1,1,0,0,0,11,1,0,1,0,0,0,0,0,0,0,0,0,0,0],"split_type":[0,0,0,0,0,0,0,0,0,0,0,0,0,0,0,0,0,0,0,0,0,0,0,0,0,0,0,0,0,0,0,0,0],"sum_hessian":[7.4525E3,7.3E3,1.525E2,7E3,3E2,5.5E1,9.75E1,4.65E3,2.35E3,2.5E2,5E1,2.1925E3,2.4575E3,1.515E3,8.35E2,1.625E2,8.75E1,4.05E2,1.7875E3,1.5475E3,9.1E2,1.025E3,4.9E2,4.2E2,4.15E2,2.5E0,4.025E2,4.25E2,1.3625E3,3.475E2,1.2E3,1.85E2,8.4E2],"tree_param":{"num_deleted":"0","num_feature":"14","num_nodes":"33","size_leaf_vector":"1"}},{"base_weights":[6.637275E7,6.2291384E7,2.547424E8,6.0344536E7,9.35847E7,9.106208E6,1.2725937E7,5.593503E7,6.596647E7,8.358671E7,1.2631906E8,5.3489492E7,5.86454E7,6.318044E7,7.051677E7,3.6196728E6,4.3041255E6,4.723065E6,6.1415075E6,4.9833356E7,5.4925724E7,5.6247684E7,2.7729392E6,6.15882E7,3.0507698E6,6.760826E7,3.3550428E6,1.9601941E6,2.2908748E6,2.301697E6,2.5226288E6,2.3117228E6,2.5698902E6,2.548805E6,2.8044688E6,2.7058562E6,3.0943558E6],"categories":[],"categories_nodes":[],"categories_segments":[],"categories_sizes":[],"default_left":[0,0,0,0,0,0,0,0,0,0,0,0,0,0,0,0,0,0,0,0,0,0,0,0,0,0,0,0,0,0,0,0,0,0,0,0,0],"id":15,"left_children":[1,3,5,7,9,-1,-1,11,13,15,17,19,21,23,25,-1,-1,-1,-1,27,29,31,-1,33,-1,35,-1,-1,-1,-1,-1,-1,-1,-1,-1,-1,-1],"loss_changes":[5.657592E18,4.336166E17,1.6088604E17,1.643616E17,1.251794E17,0E0,0E0,2.1580115E16,3.251146E16,3.1583472E15,3.687487E15,7.341989E15,8.6910897E15,8.6822936E15,7.1534227E15,0E0,0E0,0E0,0E0,1.275296E15,2.7248647E15,7.2485304E14,0E0,8.394771E14,0E0,7.9329764E14,0E0,0E0,0E0,0E0,0E0,0E0,0E0,0E0,0E0,0E0,0E0],"parents":[2147483647,0,0,1,1,2,2,3,3,4,4,7,7,8,8,9,9,10,10,11,11,12,12,13,13,14,14,19,19,20,20,21,21,23,23,25,25],"right_children":[2,4,6,8,10,-1,-1,12,14,16,18,20,22,24,26,-1,-1,-1,-1,28,30,32,-1,34,-1,36,-1,-1,-1,-1,-1,-1,-1,-1,-1,-1,-1],"split_conditions":[3.5428612E0,4.010973E-1,6.4860306E0,-1.7187244E-1,1.3940659E0,9.106208E6,1.2725937E7,-3.2592916E-1,3.2156754E-2,6.0645986E-1,1.5948211E0,-6.0322624E-1,3.0489292E-2,4.4887993E-1,-1.2150626E-1,3.6196728E6,4.3041255E6,4.723065E6,6.1415075E6,-5.151944E-1,-4.796195E-1,-1.2716867E0,2.7729392E6,-1.2414362E0,3.0507698E6,-1.4137746E0,3.3550428E6,1.9601941E6,2.2908748E6,2.301697E6,2.5226288E6,2.3117228E6,2.5698902E6,2.548805E6,2.8044688E6,2.7058562E6,3.0943558E6],"split_indices":[0,0,0,0,0,0,0,0,0,1,0,13,1,1,1,0,0,0,0,0,11,1,0,1,0,1,0,0,0,0,0,0,0,0,0,0,0],"split_type":[0,0,0,0,0,0,0,0,0,0,0,0,0,0,0,0,0,0,0,0,0,0,0,0,0,0,0,0,0,0,0,0,0,0,0,0,0],"sum_hessian":[7.3825E3,7.2275E3,1.55E2,6.8075E3,4.2E2,5.75E1,9.75E1,3.8225E3,2.985E3,3.25E2,9.5E1,2.0225E3,1.8E3,1.8625E3,1.1225E3,2.65E2,6E1,3.5E1,6E1,5.825E2,1.44E3,1.01E3,7.9E2,1.3975E3,4.65E2,6.65E2,4.575E2,9.25E1,4.9E2,3.45E2,1.095E3,1.625E2,8.475E2,1.925E2,1.205E3,9.75E1,5.675E2],"tree_param":{"num_deleted":"0","num_feature":"14","num_nodes":"37","size_leaf_vector":"1"}},{"base_weights":[6.2868852E7,5.901004E7,2.2688294E8,5.6072876E7,7.393181E7,7.113095E6,1.180382E7,5.1492224E7,5.91244E7,7.073736E7,4.5423925E6,4.9007036E7,5.3701804E7,5.789626E7,6.4813092E7,6.6854224E7,7.48143E7,1.991405E6,4.9950796E7,2.2144278E6,5.4953404E7,5.554359E7,6.0446612E7,2.7956888E6,3.086837E6,2.751761E6,3.1025745E6,3.108499E6,3.4834735E6,2.0388668E6,2.2788675E6,2.4006835E6,2.6011025E6,2.2959802E6,2.53509E6,2.5272222E6,2.770068E6],"categories":[],"categories_nodes":[],"categories_segments":[],"categories_sizes":[],"default_left":[0,0,0,0,0,0,0,0,0,0,0,0,0,0,0,0,0,0,0,0,0,0,0,0,0,0,0,0,0,0,0,0,0,0,0,0,0],"id":16,"left_children":[1,3,5,7,9,-1,-1,11,13,15,-1,17,19,21,23,25,27,-1,29,-1,31,33,35,-1,-1,-1,-1,-1,-1,-1,-1,-1,-1,-1,-1,-1,-1],"loss_changes":[4.7092897E18,3.1479898E17,3.6757663E17,8.163214E16,9.464376E16,0E0,0E0,1.028813E16,2.1023762E16,1.0995666E16,0E0,2.5791794E15,3.9722606E15,1.4068251E16,1.3782378E15,1.6371728E15,1.2333772E15,0E0,3.370003E14,0E0,8.4277566E14,2.2204637E15,2.674562E15,0E0,0E0,0E0,0E0,0E0,0E0,0E0,0E0,0E0,0E0,0E0,0E0,0E0,0E0],"parents":[2147483647,0,0,1,1,2,2,3,3,4,4,7,7,8,8,9,9,11,11,12,12,13,13,14,14,15,15,16,16,18,18,20,20,21,21,22,22],"right_children":[2,4,6,8,10,-1,-1,12,14,16,-1,18,20,22,24,26,28,-1,30,-1,32,34,36,-1,-1,-1,-1,-1,-1,-1,-1,-1,-1,-1,-1,-1,-1],"split_conditions":[2.5630653E0,9.409111E-2,4.8548565E0,-2.9598758E-1,7.215257E-1,7.113095E6,1.180382E7,-9.972594E-2,7.9641813E-1,2.6490903E-1,4.5423925E6,-5.05115E-1,-4.796195E-1,-1.2644401E-1,-1.315097E-1,-6.9321316E-1,-4.6161446E-1,1.991405E6,-1.3318186E0,2.2144278E6,1.368293E0,-1.0955688E0,-8.971984E-1,2.7956888E6,3.086837E6,2.751761E6,3.1025745E6,3.108499E6,3.4834735E6,2.0388668E6,2.2788675E6,2.4006835E6,2.6011025E6,2.2959802E6,2.53509E6,2.5272222E6,2.770068E6],"split_indices":[0,0,0,0,0,0,0,13,1,0,0,0,11,0,0,1,1,0,1,0,1,1,1,0,0,0,0,0,0,0,0,0,0,0,0,0,0],"split_type":[0,0,0,0,0,0,0,0,0,0,0,0,0,0,0,0,0,0,0,0,0,0,0,0,0,0,0,0,0,0,0,0,0,0,0,0,0],"sum_hessian":[7.465E3,7.295E3,1.7E2,6.1E3,1.195E3,6E1,1.1E2,2.4475E3,3.6525E3,1.0725E3,1.225E2,1.165E3,1.2825E3,3.015E3,6.375E2,5.6E2,5.125E2,2.025E2,9.625E2,2.9E2,9.925E2,1.5825E3,1.4325E3,3.85E2,2.525E2,1.6E2,4E2,1.7E2,3.425E2,1.35E2,8.275E2,6.5E2,3.425E2,2.475E2,1.335E3,3.075E2,1.125E3],"tree_param":{"num_deleted":"0","num_feature":"14","num_nodes":"37","size_leaf_vector":"1"}},{"base_weights":[6.0133708E7,5.6262076E7,2.150431E8,5.2657796E7,6.6624892E7,6.871873E6,1.0997549E7,4.903686E7,5.5466496E7,6.4814676E7,9.526086E7,4.6350676E7,5.0711856E7,5.4383624E7,2.7561412E6,6.2138588E7,7.0801864E7,3.255936E6,4.441694E6,1.8354662E6,2.1204142E6,2.0864955E6,5.188488E7,2.2792788E6,5.5438412E7,2.583369E6,6.38527E7,2.9881928E6,3.334322E6,2.28147E6,2.5036505E6,2.432133E6,2.588548E6,2.8143085E6,3.089965E6],"categories":[],"categories_nodes":[],"categories_segments":[],"categories_sizes":[],"default_left":[0,0,0,0,0,0,0,0,0,0,0,0,0,0,0,0,0,0,0,0,0,0,0,0,0,0,0,0,0,0,0,0,0,0,0],"id":17,"left_children":[1,3,5,7,9,-1,-1,11,13,15,17,19,21,23,-1,25,27,-1,-1,-1,-1,-1,29,-1,31,-1,33,-1,-1,-1,-1,-1,-1,-1,-1],"loss_changes":[4.4528572E18,2.6728248E17,2.8669051E17,5.1640763E16,8.958876E16,0E0,0E0,7.836769E15,1.4978647E16,2.2978694E16,4.054449E12,1.6483054E15,4.484633E15,6.7257126E15,0E0,5.5640786E15,1.8633973E15,0E0,0E0,0E0,0E0,0E0,1.6352487E15,0E0,2.0296985E15,0E0,4.7691317E14,0E0,0E0,0E0,0E0,0E0,0E0,0E0,0E0],"parents":[2147483647,0,0,1,1,2,2,3,3,4,4,7,7,8,8,9,9,10,10,11,11,12,12,13,13,15,15,16,16,22,22,24,24,26,26],"right_children":[2,4,6,8,10,-1,-1,12,14,16,18,20,22,24,-1,26,28,-1,-1,-1,-1,-1,30,-1,32,-1,34,-1,-1,-1,-1,-1,-1,-1,-1],"split_conditions":[2.5630653E0,-1.4545647E-2,4.8548565E0,-3.0004197E-1,7.215257E-1,6.871873E6,1.0997549E7,-1.9855142E-1,9.2836154E-1,2.4726827E-1,-7.937969E-1,-4.999418E-1,-5.10761E-1,-8.579875E-1,2.7561412E6,-7.013926E-1,-3.319663E-1,3.255936E6,4.441694E6,1.8354662E6,2.1204142E6,2.0864955E6,1.3920345E0,2.2792788E6,-1.3850047E-1,2.583369E6,7.1696955E-1,2.9881928E6,3.334322E6,2.28147E6,2.5036505E6,2.432133E6,2.588548E6,2.8143085E6,3.089965E6],"split_indices":[0,0,0,0,0,0,0,6,6,0,6,0,0,6,0,6,6,0,0,0,0,0,6,0,0,0,6,0,0,0,0,0,0,0,0],"split_type":[0,0,0,0,0,0,0,0,0,0,0,0,0,0,0,0,0,0,0,0,0,0,0,0,0,0,0,0,0,0,0,0,0,0,0],"sum_hessian":[7.4475E3,7.2675E3,1.8E2,5.3975E3,1.87E3,6E1,1.2E2,2.3675E3,3.03E3,1.7625E3,1.075E2,9.225E2,1.445E3,2.5625E3,4.675E2,1.2275E3,5.35E2,1.75E1,9E1,1.2E2,8.025E2,3.175E2,1.1275E3,5.775E2,1.985E3,3.375E2,8.9E2,2.4E2,2.95E2,8.7E2,2.575E2,1.21E3,7.75E2,7.125E2,1.775E2],"tree_param":{"num_deleted":"0","num_feature":"14","num_nodes":"35","size_leaf_vector":"1"}},{"base_weights":[5.726646E7,5.3959224E7,2.2065829E8,5.193299E7,7.403689E7,6.6494805E6,2.3795125E8,4.862869E7,5.6660748E7,6.80394E7,1.02966456E8,8.751197E6,1.1266935E7,4.547129E7,5.023309E7,5.4458744E7,5.9275896E7,2.7945245E6,3.1489165E6,4.1322615E6,5.124019E6,4.2377076E7,4.694562E7,4.902351E7,2.4637715E6,2.3426875E6,2.554632E6,2.5658958E6,2.8083195E6,1.0074578E6,1.9145511E6,1.9198754E6,2.1552198E6,2.0029636E6,2.2341478E6],"categories":[],"categories_nodes":[],"categories_segments":[],"categories_sizes":[],"default_left":[0,0,0,0,0,0,0,0,0,0,0,0,0,0,0,0,0,0,0,0,0,0,0,0,0,0,0,0,0,0,0,0,0,0,0],"id":18,"left_children":[1,3,5,7,9,-1,11,13,15,17,19,-1,-1,21,23,25,27,-1,-1,-1,-1,29,31,33,-1,-1,-1,-1,-1,-1,-1,-1,-1,-1,-1],"loss_changes":[3.9783827E18,2.9007316E17,1.42094835E17,9.9545385E16,1.063148E17,0E0,4.3469192E15,1.6933029E16,1.1681761E16,1.1245255E15,9.541012E14,0E0,0E0,3.6393835E15,1.0787309E16,4.664403E15,4.356265E15,0E0,0E0,0E0,0E0,3.3466385E14,1.1356581E15,3.0780828E15,0E0,0E0,0E0,0E0,0E0,0E0,0E0,0E0,0E0,0E0,0E0],"parents":[2147483647,0,0,1,1,2,2,3,3,4,4,6,6,7,7,8,8,9,9,10,10,13,13,14,14,15,15,16,16,21,21,22,22,23,23],"right_children":[2,4,6,8,10,-1,12,14,16,18,20,-1,-1,22,24,26,28,-1,-1,-1,-1,30,32,34,-1,-1,-1,-1,-1,-1,-1,-1,-1,-1,-1],"split_conditions":[3.5428612E0,2.4726827E-1,4.8548565E0,-1.7413256E-1,9.3800515E-1,6.6494805E6,-6.890174E-1,-3.981389E-1,-1.5008293E-1,-6.191287E-1,1.5948211E0,8.751197E6,1.1266935E7,-1.0874988E-1,7.9641813E-1,-2.732437E-2,-1.1354263E-2,2.7945245E6,3.1489165E6,4.1322615E6,5.124019E6,-6.3384426E-1,-5.5728585E-1,-1.2168357E0,2.4637715E6,2.3426875E6,2.554632E6,2.5658958E6,2.8083195E6,1.0074578E6,1.9145511E6,1.9198754E6,2.1552198E6,2.0029636E6,2.2341478E6],"split_indices":[0,0,0,0,0,0,13,0,1,1,0,0,0,1,1,0,0,0,0,0,0,0,0,1,0,0,0,0,0,0,0,0,0,0,0],"split_type":[0,0,0,0,0,0,0,0,0,0,0,0,0,0,0,0,0,0,0,0,0,0,0,0,0,0,0,0,0,0,0,0,0,0,0],"sum_hessian":[7.3875E3,7.2425E3,1.45E2,6.5825E3,6.6E2,3E1,1.15E2,3.8825E3,2.7E3,5.5E2,1.1E2,3E1,8.5E1,1.32E3,2.5625E3,1.48E3,1.22E3,1.45E2,4.05E2,6E1,5E1,4.375E2,8.825E2,2.0325E3,5.3E2,7.4E2,7.4E2,7.225E2,4.975E2,5E0,4.325E2,1.7E2,7.125E2,2.575E2,1.775E3],"tree_param":{"num_deleted":"0","num_feature":"14","num_nodes":"35","size_leaf_vector":"1"}},{"base_weights":[5.4856216E7,5.1705828E7,2.1628693E8,5.083533E7,1.0140544E8,7.676739E6,1.0759191E7,4.774306E7,5.8737476E7,3.8230485E6,5.244203E6,4.4556516E7,5.0162216E7,5.674144E7,2.9856795E6,4.3021292E7,4.6999176E7,4.8508804E7,5.2455856E7,5.5054708E7,2.7094132E6,1.8111136E6,1.9811718E6,1.9310108E6,2.174916E6,2.0325824E6,2.2158362E6,2.2650175E6,2.437362E6,2.2457445E6,2.5197588E6],"categories":[],"categories_nodes":[],"categories_segments":[],"categories_sizes":[],"default_left":[0,0,0,0,0,0,0,0,0,0,0,0,0,0,0,0,0,0,0,0,0,0,0,0,0,0,0,0,0,0,0],"id":19,"left_children":[1,3,5,7,9,-1,-1,11,13,-1,-1,15,17,19,-1,21,23,25,27,29,-1,-1,-1,-1,-1,-1,-1,-1,-1,-1,-1],"loss_changes":[3.7480592E18,3.077423E17,9.819628E16,1.7095097E17,1.8909264E16,0E0,0E0,3.6893013E16,2.5883603E16,0E0,0E0,5.9219696E15,7.976957E15,5.344176E15,0E0,1.7237594E15,2.119721E15,1.5027575E15,1.09071553E15,1.9035295E15,0E0,0E0,0E0,0E0,0E0,0E0,0E0,0E0,0E0,0E0,0E0],"parents":[2147483647,0,0,1,1,2,2,3,3,4,4,7,7,8,8,11,11,12,12,13,13,15,15,16,16,17,17,18,18,19,19],"right_children":[2,4,6,8,10,-1,-1,12,14,-1,-1,16,18,20,-1,22,24,26,28,30,-1,-1,-1,-1,-1,-1,-1,-1,-1,-1,-1],"split_conditions":[3.5428612E0,9.3800515E-1,6.4860306E0,-4.571957E-2,1.5948211E0,7.676739E6,1.0759191E7,-3.0968887E-1,3.178953E-1,3.8230485E6,5.244203E6,2.6833358E-1,1.6327627E-1,4.727704E-1,2.9856795E6,-4.741845E-1,-4.796195E-1,-1.2339875E0,-2.3784803E-1,-1.054852E0,2.7094132E6,1.8111136E6,1.9811718E6,1.9310108E6,2.174916E6,2.0325824E6,2.2158362E6,2.2650175E6,2.437362E6,2.2457445E6,2.5197588E6],"split_indices":[0,0,0,0,0,0,0,0,0,0,0,13,13,13,0,0,11,13,11,3,0,0,0,0,0,0,0,0,0,0,0],"split_type":[0,0,0,0,0,0,0,0,0,0,0,0,0,0,0,0,0,0,0,0,0,0,0,0,0,0,0,0,0,0,0],"sum_hessian":[7.395E3,7.255E3,1.4E2,7.1325E3,1.225E2,5E1,9E1,5.1325E3,2E3,6.25E1,6E1,2.225E3,2.9075E3,1.5925E3,4.075E2,1.38E3,8.45E2,1.705E3,1.2025E3,1.085E3,5.075E2,3.8E2,1E3,2.175E2,6.275E2,3.2E2,1.385E3,5.525E2,6.5E2,1.775E2,9.075E2],"tree_param":{"num_deleted":"0","num_feature":"14","num_nodes":"31","size_leaf_vector":"1"}},{"base_weights":[5.2536444E7,4.916554E7,1.8405962E8,4.67262E7,6.1289056E7,1.441088E8,1.0070049E7,4.398351E7,5.006398E7,5.9146484E7,8.943109E7,5.683135E6,8.1329495E6,4.2412284E7,4.7369744E7,4.7931628E7,5.3438252E7,5.6505772E7,6.4606456E7,3.7457468E6,5.1200745E6,3.9560588E7,4.3451916E7,1.9754111E6,2.200074E6,1.9828405E6,4.8740596E7,2.3556395E6,2.606145E6,2.3450285E6,2.6492025E6,2.6958985E6,3.0593168E6,1.488469E6,1.8038122E6,1.841619E6,2.0183532E6,2.1236805E6,2.2697302E6],"categories":[],"categories_nodes":[],"categories_segments":[],"categories_sizes":[],"default_left":[0,0,0,0,0,0,0,0,0,0,0,0,0,0,0,0,0,0,0,0,0,0,0,0,0,0,0,0,0,0,0,0,0,0,0,0,0,0,0],"id":20,"left_children":[1,3,5,7,9,11,-1,13,15,17,19,-1,-1,21,23,25,27,29,31,-1,-1,33,35,-1,-1,-1,37,-1,-1,-1,-1,-1,-1,-1,-1,-1,-1,-1,-1],"loss_changes":[3.300404E18,2.1196715E17,2.567673E17,5.2913997E16,6.6984997E16,3.5382147E16,0E0,1.5366775E16,1.6560294E16,1.1964886E16,1.2545428E15,0E0,0E0,4.737246E15,2.9615346E15,2.6918793E15,1.4694973E15,4.3601134E15,8.449747E14,0E0,0E0,5.3683655E14,3.7026054E15,0E0,0E0,0E0,7.729567E14,0E0,0E0,0E0,0E0,0E0,0E0,0E0,0E0,0E0,0E0,0E0,0E0],"parents":[2147483647,0,0,1,1,2,2,3,3,4,4,5,5,7,7,8,8,9,9,10,10,13,13,14,14,15,15,16,16,17,17,18,18,21,21,22,22,26,26],"right_children":[2,4,6,8,10,12,-1,14,16,18,20,-1,-1,22,24,26,28,30,32,-1,-1,34,36,-1,-1,-1,38,-1,-1,-1,-1,-1,-1,-1,-1,-1,-1,-1,-1],"split_conditions":[2.5110753E0,7.1561E-2,6.3630543E0,-2.2298717E-1,9.8733604E-1,-5.406695E-1,1.0070049E7,6.115536E-1,1.7327128E-1,3.401407E-1,1.758915E0,5.683135E6,8.1329495E6,-4.1343978E-1,-4.1343978E-1,-1.2096796E0,1.4148813E0,-4.2725977E-1,-1.8739781E-1,3.7457468E6,5.1200745E6,-1.2629635E0,-7.2150207E-1,1.9754111E6,2.200074E6,1.9828405E6,-9.444815E-2,2.3556395E6,2.606145E6,2.3450285E6,2.6492025E6,2.6958985E6,3.0593168E6,1.488469E6,1.8038122E6,1.841619E6,2.0183532E6,2.1236805E6,2.2697302E6],"split_indices":[11,11,11,11,11,13,0,13,13,11,9,0,0,11,11,13,13,13,13,0,0,13,13,0,0,0,11,0,0,0,0,0,0,0,0,0,0,0,0],"split_type":[0,0,0,0,0,0,0,0,0,0,0,0,0,0,0,0,0,0,0,0,0,0,0,0,0,0,0,0,0,0,0,0,0,0,0,0,0,0,0],"sum_hessian":[7.4675E3,7.2825E3,1.85E2,6.0675E3,1.215E3,9.5E1,9E1,3.34E3,2.7275E3,1.1325E3,8.25E1,6.75E1,2.75E1,2.2925E3,1.0475E3,1.6825E3,1.045E3,7.725E2,3.6E2,7E1,1.25E1,6.25E2,1.6675E3,3.3E2,7.175E2,3.025E2,1.38E3,8.525E2,1.925E2,2.8E2,4.925E2,1.6E2,2E2,5.25E1,5.725E2,6.075E2,1.06E3,7.4E2,6.4E2],"tree_param":{"num_deleted":"0","num_feature":"14","num_nodes":"39","size_leaf_vector":"1"}},{"base_weights":[4.997904E7,4.7177852E7,1.9563877E8,4.5951156E7,7.498767E7,6.7643865E6,9.861812E6,4.3119772E7,5.1570316E7,6.754357E7,4.6421975E6,4.0722252E7,4.5320604E7,4.976623E7,5.5768704E7,2.8368718E6,3.3550982E6,3.9610256E7,4.383273E7,4.4422268E7,2.2718725E6,4.869956E7,2.4704928E6,5.3688216E7,2.779599E6,1.6068698E6,1.8150728E6,1.6934001E6,2.028867E6,1.8597565E6,2.0384156E6,2.0319735E6,2.2333262E6,2.17707E6,2.4775528E6],"categories":[],"categories_nodes":[],"categories_segments":[],"categories_sizes":[],"default_left":[0,0,0,0,0,0,0,0,0,0,0,0,0,0,0,0,0,0,0,0,0,0,0,0,0,0,0,0,0,0,0,0,0,0,0],"id":21,"left_children":[1,3,5,7,9,-1,-1,11,13,15,-1,17,19,21,23,-1,-1,25,27,29,-1,31,-1,33,-1,-1,-1,-1,-1,-1,-1,-1,-1,-1,-1],"loss_changes":[2.9965276E18,2.4263473E17,1.0826341E17,1.07607E17,5.53299E16,0E0,0E0,2.2143614E16,1.4212837E16,2.0551934E15,0E0,5.599263E15,8.4283064E15,5.7240575E15,4.586613E15,0E0,0E0,2.933772E15,2.4227052E15,3.3122788E15,0E0,1.7977015E15,0E0,5.720209E14,0E0,0E0,0E0,0E0,0E0,0E0,0E0,0E0,0E0,0E0,0E0],"parents":[2147483647,0,0,1,1,2,2,3,3,4,4,7,7,8,8,9,9,11,11,12,12,13,13,14,14,17,17,18,18,19,19,21,21,23,23],"right_children":[2,4,6,8,10,-1,-1,12,14,16,-1,18,20,22,24,-1,-1,26,28,30,-1,32,-1,34,-1,-1,-1,-1,-1,-1,-1,-1,-1,-1,-1],"split_conditions":[3.5428612E0,4.7788614E-1,6.4860306E0,-1.00346066E-1,1.5948211E0,6.7643865E6,9.861812E6,-3.0968887E-1,1.4712508E-1,2.70556E-1,4.6421975E6,9.9467015E-1,1.0248268E0,6.5596926E-1,2.936923E-1,2.8368718E6,3.3550982E6,-4.999418E-1,-5.5728585E-1,-8.146289E-1,2.2718725E6,-8.971984E-1,2.4704928E6,-9.621527E-1,2.779599E6,1.6068698E6,1.8150728E6,1.6934001E6,2.028867E6,1.8597565E6,2.0384156E6,2.0319735E6,2.2333262E6,2.17707E6,2.4775528E6],"split_indices":[0,0,0,0,0,0,0,0,0,7,0,6,6,1,1,0,0,0,0,1,0,1,0,1,0,0,0,0,0,0,0,0,0,0,0],"split_type":[0,0,0,0,0,0,0,0,0,0,0,0,0,0,0,0,0,0,0,0,0,0,0,0,0,0,0,0,0,0,0,0,0,0,0],"sum_hessian":[7.37E3,7.2325E3,1.375E2,6.93E3,3.025E2,5E1,8.75E1,4.615E3,2.315E3,2.425E2,6E1,2.22E3,2.395E3,1.63E3,6.85E2,1.55E2,8.75E1,1.6475E3,5.725E2,2.05E3,3.45E2,1.36E3,2.7E2,5.175E2,1.675E2,2.675E2,1.38E3,1.025E2,4.7E2,4.65E2,1.585E3,2.95E2,1.065E3,1.15E2,4.025E2],"tree_param":{"num_deleted":"0","num_feature":"14","num_nodes":"35","size_leaf_vector":"1"}},{"base_weights":[4.7806136E7,4.516295E7,1.8563203E8,4.3610468E7,6.6970188E7,1.5759582E8,9.874158E6,4.0638644E7,4.7827784E7,6.0167816E7,9.273618E7,5.671709E6,7.7216325E6,3.828018E7,4.22472E7,4.6931704E7,5.41849E7,2.608421E6,3.1447312E6,1.7745079E6,4.2143995E6,3.680652E7,4.07841E7,4.0109356E7,4.408775E7,4.5049868E7,4.9577836E7,2.3322522E6,2.7185258E6,1.4716231E6,1.6825066E6,1.6120325E6,1.8847438E6,1.6378919E6,1.8354688E6,1.941189E6,2.1497985E6,1.798096E6,2.0476384E6,1.9760876E6,2.2727578E6],"categories":[],"categories_nodes":[],"categories_segments":[],"categories_sizes":[],"default_left":[0,0,0,0,0,0,0,0,0,0,0,0,0,0,0,0,0,0,0,0,0,0,0,0,0,0,0,0,0,0,0,0,0,0,0,0,0,0,0,0,0],"id":22,"left_children":[1,3,5,7,9,11,-1,13,15,17,19,-1,-1,21,23,25,27,-1,-1,-1,-1,29,31,33,35,37,39,-1,-1,-1,-1,-1,-1,-1,-1,-1,-1,-1,-1,-1,-1],"loss_changes":[2.6342803E18,2.3767043E17,8.7545315E16,8.1061495E16,7.589145E16,8.807913E15,0E0,1.2897271E16,1.2577863E16,3.1903704E15,2.7123577E14,0E0,0E0,4.0978798E15,6.981899E15,9.338702E15,1.1039097E15,0E0,0E0,0E0,0E0,9.678451E14,1.3686171E15,9.49016E14,1.8386583E15,1.1039097E15,2.548668E15,0E0,0E0,0E0,0E0,0E0,0E0,0E0,0E0,0E0,0E0,0E0,0E0,0E0,0E0],"parents":[2147483647,0,0,1,1,2,2,3,3,4,4,5,5,7,7,8,8,9,9,10,10,13,13,14,14,15,15,16,16,21,21,22,22,23,23,24,24,25,25,26,26],"right_children":[2,4,6,8,10,12,-1,14,16,18,20,-1,-1,22,24,26,28,-1,-1,-1,-1,30,32,34,36,38,40,-1,-1,-1,-1,-1,-1,-1,-1,-1,-1,-1,-1,-1,-1],"split_conditions":[3.5428612E0,3.656023E-1,7.296586E0,-1.608588E-1,1.3940659E0,4.8548565E0,9.874158E6,-3.6470634E-1,9.254793E-1,6.0645986E-1,-2.0064943E0,5.671709E6,7.7216325E6,6.830005E-1,-1.9040231E-1,2.0013455E-2,7.3201105E-2,2.608421E6,3.1447312E6,1.7745079E6,4.2143995E6,-1.0009482E0,-5.5728585E-1,-1.3318186E0,1.3385496E0,-1.3772E0,-1.128775E0,2.3322522E6,2.7185258E6,1.4716231E6,1.6825066E6,1.6120325E6,1.8847438E6,1.6378919E6,1.8354688E6,1.941189E6,2.1497985E6,1.798096E6,2.0476384E6,1.9760876E6,2.2727578E6],"split_indices":[0,0,0,0,0,0,0,0,1,1,1,0,0,1,1,0,0,0,0,0,0,1,0,1,1,1,1,0,0,0,0,0,0,0,0,0,0,0,0,0,0],"split_type":[0,0,0,0,0,0,0,0,0,0,0,0,0,0,0,0,0,0,0,0,0,0,0,0,0,0,0,0,0,0,0,0,0,0,0,0,0,0,0,0,0],"sum_hessian":[7.2575E3,7.1225E3,1.35E2,6.6525E3,4.7E2,7.75E1,5.75E1,3.91E3,2.7425E3,3.75E2,9.5E1,2.75E1,5E1,1.5975E3,2.3125E3,2.4125E3,3.3E2,3.125E2,6.25E1,2.5E0,9.25E1,1.0175E3,5.8E2,1.0825E3,1.23E3,1.4225E3,9.9E2,2.475E2,8.25E1,1.35E2,8.825E2,1.125E2,4.675E2,1.775E2,9.05E2,9.9E2,2.4E2,1.25E2,1.2975E3,1.475E2,8.425E2],"tree_param":{"num_deleted":"0","num_feature":"14","num_nodes":"41","size_leaf_vector":"1"}},{"base_weights":[4.552554E7,4.2835984E7,1.6449176E8,4.056376E7,5.2648972E7,1.2792441E8,1.9760858E8,3.766262E7,4.2757816E7,5.077248E7,7.811189E7,5.1147835E6,6.8696565E6,3.7147505E6,8.996899E6,3.505051E7,3.9218664E7,3.999194E7,4.461122E7,4.8743236E7,5.5771616E7,7.232792E7,4.7023265E6,1.3857856E6,3.564066E7,1.5658429E6,3.989896E7,3.8372896E7,1.8719866E6,4.3541376E7,2.1375295E6,4.676593E7,2.394934E6,2.1360185E6,2.5725542E6,1.9904288E6,3.3543905E6,1.3583784E6,1.6214935E6,1.7394578E6,1.8985225E6,1.5135079E6,1.7507538E6,1.8799275E6,2.0275805E6,1.8774621E6,2.147033E6],"categories":[],"categories_nodes":[],"categories_segments":[],"categories_sizes":[],"default_left":[0,0,0,0,0,0,0,0,0,0,0,0,0,0,0,0,0,0,0,0,0,0,0,0,0,0,0,0,0,0,0,0,0,0,0,0,0,0,0,0,0,0,0,0,0,0,0],"id":23,"left_children":[1,3,5,7,9,11,13,15,17,19,21,-1,-1,-1,-1,23,25,27,29,31,33,35,-1,-1,37,-1,39,41,-1,43,-1,45,-1,-1,-1,-1,-1,-1,-1,-1,-1,-1,-1,-1,-1,-1,-1],"loss_changes":[2.366878E18,1.5934232E17,1.6790505E17,3.5630774E16,6.028045E16,7.82385E15,2.5615872E15,8.719952E15,1.503802E16,9.633096E15,4.8480216E15,0E0,0E0,0E0,0E0,1.1029476E15,3.1132672E15,1.6144954E15,3.6888615E15,5.102696E15,9.029052E14,9.391891E14,0E0,0E0,4.904509E14,0E0,1.9437991E15,1.7495979E14,0E0,1.6778547E15,0E0,6.827967E14,0E0,0E0,0E0,0E0,0E0,0E0,0E0,0E0,0E0,0E0,0E0,0E0,0E0,0E0,0E0],"parents":[2147483647,0,0,1,1,2,2,3,3,4,4,5,5,6,6,7,7,8,8,9,9,10,10,15,15,16,16,17,17,18,18,19,19,20,20,21,21,24,24,26,26,27,27,29,29,31,31],"right_children":[2,4,6,8,10,12,14,16,18,20,22,-1,-1,-1,-1,24,26,28,30,32,34,36,-1,-1,38,-1,40,42,-1,44,-1,46,-1,-1,-1,-1,-1,-1,-1,-1,-1,-1,-1,-1,-1,-1,-1],"split_conditions":[2.5110753E0,3.9325293E-2,6.3630543E0,-2.803188E-1,9.8733604E-1,-5.406695E-1,-1.6199659E0,-1.3133885E-1,-3.534993E-1,3.401407E-1,6.93445E-1,5.1147835E6,6.8696565E6,3.7147505E6,8.996899E6,-1.5105923E0,-4.9897215E-1,-1.4469765E-1,1.001663E0,3.6982855E-1,-8.312407E-1,-1.7729393E0,4.7023265E6,1.3857856E6,-5.0869405E-1,1.5658429E6,9.449268E-1,-1.678409E0,1.8719866E6,-1.4988348E-1,2.1375295E6,-1.128775E0,2.394934E6,2.1360185E6,2.5725542E6,1.9904288E6,3.3543905E6,1.3583784E6,1.6214935E6,1.7394578E6,1.8985225E6,1.5135079E6,1.7507538E6,1.8799275E6,2.0275805E6,1.8774621E6,2.147033E6],"split_indices":[11,11,11,11,11,13,13,13,13,11,13,0,0,0,0,13,11,11,13,13,13,13,0,0,11,0,13,13,0,11,0,1,0,0,0,0,0,0,0,0,0,0,0,0,0,0,0],"split_type":[0,0,0,0,0,0,0,0,0,0,0,0,0,0,0,0,0,0,0,0,0,0,0,0,0,0,0,0,0,0,0,0,0,0,0,0,0,0,0,0,0,0,0,0,0,0,0],"sum_hessian":[7.4225E3,7.26E3,1.625E2,5.9E3,1.36E3,8E1,8.25E1,2.55E3,3.35E3,1.27E3,9E1,5.5E1,2.5E1,2.5E0,8E1,9.625E2,1.5875E3,1.355E3,1.995E3,9.125E2,3.575E2,7.75E1,1.25E1,1.25E2,8.375E2,2.2E2,1.3675E3,6.9E2,6.65E2,1.47E3,5.25E2,6.425E2,2.7E2,5.75E1,3E2,7.5E0,7E1,6.25E1,7.75E2,9E2,4.675E2,7.75E1,6.125E2,6.95E2,7.75E2,1.1E2,5.325E2],"tree_param":{"num_deleted":"0","num_feature":"14","num_nodes":"47","size_leaf_vector":"1"}},{"base_weights":[4.392958E7,4.0898868E7,1.6232549E8,3.890672E7,5.1155236E7,1.28875256E8,8.601436E6,3.563437E7,4.090669E7,4.9150496E7,7.55884E7,1.1865245E8,7.8500975E6,3.3093866E7,3.712798E7,3.824865E7,4.279317E7,4.7941124E7,2.603088E6,7.035229E7,4.640126E6,3.9648455E6,5.668086E6,2.8035516E7,3.356881E7,1.4979719E6,3.778047E7,3.6949508E7,1.8204009E6,4.1344064E7,4.5300052E7,4.6366796E7,2.4277082E6,2.161682E6,3.278356E6,4.796646E5,1.2791235E6,1.2896341E6,1.5284895E6,1.6544249E6,1.8031092E6,1.4555684E6,1.6845331E6,1.8122242E6,1.9692534E6,1.9790225E6,2.2045045E6,1.8905109E6,2.1471975E6],"categories":[],"categories_nodes":[],"categories_segments":[],"categories_sizes":[],"default_left":[0,0,0,0,0,0,0,0,0,0,0,0,0,0,0,0,0,0,0,0,0,0,0,0,0,0,0,0,0,0,0,0,0,0,0,0,0,0,0,0,0,0,0,0,0,0,0,0,0],"id":24,"left_children":[1,3,5,7,9,11,-1,13,15,17,19,21,-1,23,25,27,29,31,-1,33,-1,-1,-1,35,37,-1,39,41,-1,43,45,47,-1,-1,-1,-1,-1,-1,-1,-1,-1,-1,-1,-1,-1,-1,-1,-1,-1],"loss_changes":[2.6387927E18,1.4459458E17,1.4751818E17,3.770665E16,5.266441E16,1.6484153E16,0E0,7.238635E15,1.6757657E16,8.042378E15,3.7185483E15,3.685082E15,0E0,9.396014E14,2.0889347E15,2.677723E15,5.649016E15,6.0425036E15,0E0,5.1573967E13,0E0,0E0,0E0,1.8591195E14,3.5713512E14,0E0,1.0644647E15,7.692458E14,0E0,1.4914875E15,1.2358511E15,2.0953943E15,0E0,0E0,0E0,0E0,0E0,0E0,0E0,0E0,0E0,0E0,0E0,0E0,0E0,0E0,0E0,0E0,0E0],"parents":[2147483647,0,0,1,1,2,2,3,3,4,4,5,5,7,7,8,8,9,9,10,10,11,11,13,13,14,14,15,15,16,16,17,17,19,19,23,23,24,24,26,26,27,27,29,29,30,30,31,31],"right_children":[2,4,6,8,10,12,-1,14,16,18,20,22,-1,24,26,28,30,32,-1,34,-1,-1,-1,36,38,-1,40,42,-1,44,46,48,-1,-1,-1,-1,-1,-1,-1,-1,-1,-1,-1,-1,-1,-1,-1,-1,-1],"split_conditions":[2.5110753E0,7.1561E-2,6.3630543E0,-3.0281428E-1,9.8733604E-1,1.6057824E0,8.601436E6,-1.24209434E-1,-3.2691488E-1,9.585632E-1,6.93445E-1,3.5265238E0,7.8500975E6,-5.0869405E-1,-4.9897215E-1,-1.06008E-1,-1.07735656E-1,4.5385012E-1,2.603088E6,-1.1234629E0,4.640126E6,3.9648455E6,5.668086E6,-2.1590178E0,-1.7729393E0,1.4979719E6,1.001663E0,-1.678409E0,1.8204009E6,1.0239072E0,1.0424727E0,-7.5931376E-1,2.4277082E6,2.161682E6,3.278356E6,4.796646E5,1.2791235E6,1.2896341E6,1.5284895E6,1.6544249E6,1.8031092E6,1.4555684E6,1.6845331E6,1.8122242E6,1.9692534E6,1.9790225E6,2.2045045E6,1.8905109E6,2.1471975E6],"split_indices":[11,11,11,11,11,1,0,13,13,13,13,11,0,11,11,11,11,11,0,10,0,0,0,1,13,0,13,13,0,13,13,13,0,0,0,0,0,0,0,0,0,0,0,0,0,0,0,0,0],"split_type":[0,0,0,0,0,0,0,0,0,0,0,0,0,0,0,0,0,0,0,0,0,0,0,0,0,0,0,0,0,0,0,0,0,0,0,0,0,0,0,0,0,0,0,0,0,0,0,0,0],"sum_hessian":[7.375E3,7.1925E3,1.825E2,6.0275E3,1.165E3,8.75E1,9.5E1,2.295E3,3.7325E3,1.08E3,8.5E1,7.5E1,1.25E1,8.6E2,1.435E3,1.56E3,2.1725E3,9.55E2,1.25E2,7.5E1,1E1,1.75E1,5.75E1,8E1,7.8E2,2.175E2,1.2175E3,9.95E2,5.65E2,1.39E3,7.825E2,7.65E2,1.9E2,1E1,6.5E1,2.5E0,7.75E1,6.5E1,7.15E2,8.575E2,3.6E2,1.025E2,8.925E2,9.775E2,4.125E2,5.875E2,1.95E2,1.9E2,5.75E2],"tree_param":{"num_deleted":"0","num_feature":"14","num_nodes":"49","size_leaf_vector":"1"}},{"base_weights":[4.1999964E7,3.9291404E7,1.6035826E8,3.7612356E7,5.4270412E7,1.2702146E8,1.8161264E8,3.495903E7,4.0741704E7,5.0191064E7,8.0571416E7,4.351235E6,6.080444E6,3.3402718E6,8.256482E6,3.2940008E7,3.6323836E7,3.9808636E7,4.4687504E7,4.8357664E7,2.6457478E6,3.4153382E6,4.856388E6,3.0062362E7,3.3904756E7,3.357849E7,3.7673964E7,3.8216148E7,4.188061E7,1.9072502E6,2.110581E6,2.0950649E6,2.3771045E6,4.6508025E5,1.3572816E6,1.3720635E6,1.5465221E6,1.1315279E6,1.5244084E6,1.653711E6,1.8562015E6,1.486077E6,1.736927E6,1.7014424E6,1.9147951E6],"categories":[],"categories_nodes":[],"categories_segments":[],"categories_sizes":[],"default_left":[0,0,0,0,0,0,0,0,0,0,0,0,0,0,0,0,0,0,0,0,0,0,0,0,0,0,0,0,0,0,0,0,0,0,0,0,0,0,0,0,0,0,0,0,0],"id":25,"left_children":[1,3,5,7,9,11,13,15,17,19,21,-1,-1,-1,-1,23,25,27,29,31,-1,-1,-1,33,35,37,39,41,43,-1,-1,-1,-1,-1,-1,-1,-1,-1,-1,-1,-1,-1,-1,-1,-1],"loss_changes":[2.3795455E18,1.8067615E17,9.007914E16,5.2687498E16,7.359856E16,1.1966122E15,3.4211304E15,8.356838E15,8.9049447E15,6.6233206E15,2.4706713E15,0E0,0E0,0E0,0E0,2.791935E15,6.2977277E15,6.1179576E15,4.9058834E14,1.3213381E15,0E0,0E0,0E0,3.5909363E14,4.3760563E14,7.4821766E14,2.822034E15,1.231453E15,9.2427696E14,0E0,0E0,0E0,0E0,0E0,0E0,0E0,0E0,0E0,0E0,0E0,0E0,0E0,0E0,0E0,0E0],"parents":[2147483647,0,0,1,1,2,2,3,3,4,4,5,5,6,6,7,7,8,8,9,9,10,10,15,15,16,16,17,17,18,18,19,19,23,23,24,24,25,25,26,26,27,27,28,28],"right_children":[2,4,6,8,10,12,14,16,18,20,22,-1,-1,-1,-1,24,26,28,30,32,-1,-1,-1,34,36,38,40,42,44,-1,-1,-1,-1,-1,-1,-1,-1,-1,-1,-1,-1,-1,-1,-1,-1],"split_conditions":[3.5428612E0,2.2915627E-1,6.4860306E0,-2.003028E-1,1.3940659E0,-7.8348446E-1,-1.4139774E0,-1.9855142E-1,6.207277E-1,5.889221E-1,1.835454E0,4.351235E6,6.080444E6,3.3402718E6,8.256482E6,-4.2080227E-1,-4.2798218E-1,-2.732437E-2,-7.240519E-2,5.362996E-1,2.6457478E6,3.4153382E6,4.856388E6,-2.1595733E0,-1.545977E0,-6.5906096E-1,1.4245474E0,-1.6496834E0,-1.0957481E0,1.9072502E6,2.110581E6,2.0950649E6,2.3771045E6,4.6508025E5,1.3572816E6,1.3720635E6,1.5465221E6,1.1315279E6,1.5244084E6,1.653711E6,1.8562015E6,1.486077E6,1.736927E6,1.7014424E6,1.9147951E6],"split_indices":[0,0,0,0,0,6,6,6,6,6,2,0,0,0,0,0,0,0,0,0,0,0,0,6,6,0,6,6,6,0,0,0,0,0,0,0,0,0,0,0,0,0,0,0,0],"split_type":[0,0,0,0,0,0,0,0,0,0,0,0,0,0,0,0,0,0,0,0,0,0,0,0,0,0,0,0,0,0,0,0,0,0,0,0,0,0,0,0,0,0,0,0,0],"sum_hessian":[7.445E3,7.28E3,1.65E2,6.55E3,7.3E2,6.75E1,9.75E1,3.5525E3,2.9975E3,6.35E2,9.5E1,1.75E1,5E1,2.5E0,9.5E1,1.445E3,2.1075E3,2.435E3,5.625E2,5.3E2,1.05E2,8.5E1,1E1,3.725E2,1.0725E3,7.05E2,1.4025E3,1.39E3,1.045E3,2.875E2,2.75E2,3.875E2,1.425E2,2.5E0,3.7E2,1.375E2,9.35E2,2.75E1,6.775E2,1.125E3,2.775E2,1.025E2,1.2875E3,1.575E2,8.875E2],"tree_param":{"num_deleted":"0","num_feature":"14","num_nodes":"45","size_leaf_vector":"1"}},{"base_weights":[3.9797652E7,3.7410572E7,1.4539765E8,3.591617E7,4.936876E7,1.0684986E8,7.386923E6,3.3453532E7,3.833076E7,4.6269252E7,6.6461396E7,3.9888668E6,6.5359265E6,3.2400096E7,3.530728E7,3.7516216E7,4.281813E7,1.7786081E6,4.7362216E7,6.052835E7,4.798435E6,1.2788208E6,3.2810928E7,3.3427304E7,1.6761315E6,1.4766645E6,3.793447E7,1.8212488E6,2.0373289E6,2.0354379E6,2.251086E6,2.0434236E6,2.87737E6,1.3886776E6,1.51436E6,1.2747581E6,1.5239355E6,1.6587874E6,1.7922158E6],"categories":[],"categories_nodes":[],"categories_segments":[],"categories_sizes":[],"default_left":[0,0,0,0,0,0,0,0,0,0,0,0,0,0,0,0,0,0,0,0,0,0,0,0,0,0,0,0,0,0,0,0,0,0,0,0,0,0,0],"id":26,"left_children":[1,3,5,7,9,11,-1,13,15,17,19,-1,-1,21,23,25,27,-1,29,31,-1,-1,33,35,-1,-1,37,-1,-1,-1,-1,-1,-1,-1,-1,-1,-1,-1,-1],"loss_changes":[1.8364472E18,1.2566758E17,9.550138E16,3.6286632E16,3.822672E16,2.3838512E16,0E0,4.79552E15,9.782905E15,2.7200543E15,2.0545096E16,0E0,0E0,2.1997105E15,2.631681E15,3.8573617E15,5.878951E14,0E0,5.3793606E14,1.9960603E15,0E0,0E0,1.7608679E15,1.5784864E14,0E0,0E0,3.2949615E15,0E0,0E0,0E0,0E0,0E0,0E0,0E0,0E0,0E0,0E0,0E0,0E0],"parents":[2147483647,0,0,1,1,2,2,3,3,4,4,5,5,7,7,8,8,9,9,10,10,13,13,14,14,15,15,16,16,18,18,19,19,22,22,23,23,26,26],"right_children":[2,4,6,8,10,12,-1,14,16,18,20,-1,-1,22,24,26,28,-1,30,32,-1,-1,34,36,-1,-1,38,-1,-1,-1,-1,-1,-1,-1,-1,-1,-1,-1,-1],"split_conditions":[2.6034627E0,1.6417831E-1,4.7676234E0,-2.257234E-1,6.4981973E-1,1.974991E-1,7.386923E6,5.011887E-1,9.2836154E-1,-8.4927773E-1,1.835454E0,3.9888668E6,6.5359265E6,-1.3772E0,-3.5282907E-1,-1.5801798E0,-1.1440874E-1,1.7786081E6,3.8040924E-1,-7.936399E-1,4.798435E6,1.2788208E6,-3.88303E-1,-5.278274E-1,1.6761315E6,1.4766645E6,-5.71518E-2,1.8212488E6,2.0373289E6,2.0354379E6,2.251086E6,2.0434236E6,2.87737E6,1.3886776E6,1.51436E6,1.2747581E6,1.5239355E6,1.6587874E6,1.7922158E6],"split_indices":[12,12,12,12,12,1,0,6,6,1,2,0,0,1,12,1,12,0,12,1,0,0,12,12,0,0,12,0,0,0,0,0,0,0,0,0,0,0,0],"split_type":[0,0,0,0,0,0,0,0,0,0,0,0,0,0,0,0,0,0,0,0,0,0,0,0,0,0,0,0,0,0,0,0,0,0,0,0,0,0,0],"sum_hessian":[7.31E3,7.15E3,1.6E2,6.36E3,7.9E2,5.5E1,1.05E2,3.1575E3,3.2025E3,6.725E2,1.175E2,4E1,1.5E1,2.0275E3,1.13E3,2.72E3,4.825E2,1E2,5.725E2,1.05E2,1.25E1,1.975E2,1.83E3,5.85E2,5.45E2,2.3E2,2.49E3,2.575E2,2.25E2,3.3E2,2.425E2,2.25E1,8.25E1,5.65E2,1.265E3,5.25E1,5.325E2,1.605E3,8.85E2],"tree_param":{"num_deleted":"0","num_feature":"14","num_nodes":"39","size_leaf_vector":"1"}},{"base_weights":[3.8137424E7,3.5918504E7,1.4607029E8,3.4291536E7,4.892435E7,4.317444E6,1.5909955E8,3.1919504E7,3.712254E7,4.558985E7,7.43753E7,5.998108E6,1.7461546E8,3.1021902E7,3.4710356E7,3.608911E7,4.0335896E7,4.385392E7,2.4138875E6,1.7772912E6,3.4131905E6,4.2769E6,8.0581935E6,2.9252556E7,3.2274758E7,1.4805369E6,1.6478566E6,3.5030156E7,1.7355032E6,3.897506E7,1.9526566E6,4.1861856E7,2.165022E6,1.168603E6,1.3450082E6,1.3449364E6,1.4910614E6,1.3652372E6,1.5918516E6,1.6881915E6,1.8788365E6,1.5390011E6,1.9234624E6],"categories":[],"categories_nodes":[],"categories_segments":[],"categories_sizes":[],"default_left":[0,0,0,0,0,0,0,0,0,0,0,0,0,0,0,0,0,0,0,0,0,0,0,0,0,0,0,0,0,0,0,0,0,0,0,0,0,0,0,0,0,0,0],"id":27,"left_children":[1,3,5,7,9,-1,11,13,15,17,19,-1,21,23,25,27,29,31,-1,-1,-1,-1,-1,33,35,-1,-1,37,-1,39,-1,41,-1,-1,-1,-1,-1,-1,-1,-1,-1,-1,-1],"loss_changes":[1.7662511E18,1.5147532E17,7.880145E16,4.190019E16,6.413795E16,0E0,1.8601263E16,7.5225837E15,7.995099E15,7.153148E15,1.09205556E15,0E0,3.9335028E15,4.7941456E15,1.476919E15,4.232845E15,8.9747637E14,2.618693E15,0E0,0E0,0E0,0E0,0E0,1.4119104E15,2.0011112E15,0E0,0E0,1.258391E15,0E0,1.4176828E14,0E0,1.04068776E15,0E0,0E0,0E0,0E0,0E0,0E0,0E0,0E0,0E0,0E0,0E0],"parents":[2147483647,0,0,1,1,2,2,3,3,4,4,6,6,7,7,8,8,9,9,10,10,12,12,13,13,14,14,15,15,16,16,17,17,23,23,24,24,27,27,29,29,31,31],"right_children":[2,4,6,8,10,-1,12,14,16,18,20,-1,22,24,26,28,30,32,-1,-1,-1,-1,-1,34,36,-1,-1,38,-1,40,-1,42,-1,-1,-1,-1,-1,-1,-1,-1,-1,-1,-1],"split_conditions":[3.5428612E0,2.09719E-1,4.8548565E0,-2.003028E-1,1.3940659E0,4.317444E6,-3.459479E-1,7.2386944E-1,4.367795E-1,5.889221E-1,-1.5813355E0,5.998108E6,3.6125789E0,-3.5664973E-1,-3.537398E-1,1.48916645E-2,1.3028322E0,5.036023E-1,2.4138875E6,1.7772912E6,3.4131905E6,4.2769E6,8.0581935E6,-9.6252364E-1,-1.0814165E0,1.4805369E6,1.6478566E6,-1.6496834E0,1.7355032E6,-1.1354263E-2,1.9526566E6,-1.4934608E0,2.165022E6,1.168603E6,1.3450082E6,1.3449364E6,1.4910614E6,1.3652372E6,1.5918516E6,1.6881915E6,1.8788365E6,1.5390011E6,1.9234624E6],"split_indices":[0,0,0,0,0,0,13,13,6,6,6,0,12,11,11,0,6,0,0,0,0,0,0,13,13,0,0,6,0,0,0,6,0,0,0,0,0,0,0,0,0,0,0],"split_type":[0,0,0,0,0,0,0,0,0,0,0,0,0,0,0,0,0,0,0,0,0,0,0,0,0,0,0,0,0,0,0,0,0,0,0,0,0,0,0,0,0,0,0],"sum_hessian":[7.4E3,7.2525E3,1.475E2,6.45E3,8.025E2,3.25E1,1.15E2,3.5175E3,2.9325E3,7.125E2,9E1,4.75E1,6.75E1,2.6725E3,8.45E2,2.23E3,7.025E2,5.925E2,1.2E2,5E0,8.5E1,5E0,6.25E1,1.12E3,1.5525E3,4.45E2,4E2,1.575E3,6.55E2,4.975E2,2.05E2,4.125E2,1.8E2,1.9E2,9.3E2,4.225E2,1.13E3,1.15E2,1.46E3,3.375E2,1.6E2,4.75E1,3.65E2],"tree_param":{"num_deleted":"0","num_feature":"14","num_nodes":"43","size_leaf_vector":"1"}},{"base_weights":[3.6276396E7,3.4165692E7,1.426647E8,3.304285E7,4.9317852E7,1.1502314E8,1.7083195E8,3.0725284E7,3.562759E7,4.703045E7,4.1751512E6,4.2529465E6,6.055054E6,7.7948105E6,3.2731298E6,2.9601682E7,3.3520892E7,3.2765464E7,3.749912E7,4.4175572E7,2.8436748E6,2.7408354E7,3.0429212E7,1.393604E6,1.5630814E6,3.0912866E7,1.529472E6,3.6879012E7,1.936781E6,1.8744106E6,2.2311945E6,1.0616434E6,1.2592832E6,1.2831412E6,1.4187165E6,1.2107299E6,1.4171265E6,1.5958411E6,1.7634165E6],"categories":[],"categories_nodes":[],"categories_segments":[],"categories_sizes":[],"default_left":[0,0,0,0,0,0,0,0,0,0,0,0,0,0,0,0,0,0,0,0,0,0,0,0,0,0,0,0,0,0,0,0,0,0,0,0,0,0,0],"id":28,"left_children":[1,3,5,7,9,11,13,15,17,19,-1,-1,-1,-1,-1,21,23,25,27,29,-1,31,33,-1,-1,35,-1,37,-1,-1,-1,-1,-1,-1,-1,-1,-1,-1,-1],"loss_changes":[1.6572466E18,1.2162523E17,8.83037E16,3.921848E16,4.434358E16,1.5272766E16,9.606983E14,1.0042389E16,1.5619387E16,1.862284E16,0E0,0E0,0E0,0E0,0E0,3.6479047E15,1.8579685E15,1.618756E15,4.696014E15,3.0943693E15,0E0,7.758429E14,2.807603E15,0E0,0E0,1.8657338E14,0E0,4.0060706E15,0E0,0E0,0E0,0E0,0E0,0E0,0E0,0E0,0E0,0E0,0E0],"parents":[2147483647,0,0,1,1,2,2,3,3,4,4,5,5,6,6,7,7,8,8,9,9,15,15,16,16,17,17,18,18,19,19,21,21,22,22,25,25,27,27],"right_children":[2,4,6,8,10,12,14,16,18,20,-1,-1,-1,-1,-1,22,24,26,28,30,-1,32,34,-1,-1,36,-1,38,-1,-1,-1,-1,-1,-1,-1,-1,-1,-1,-1],"split_conditions":[3.6125789E0,3.0314168E-1,-3.1230348E-1,-1.9730985E-1,2.4531467E0,6.274115E0,1.835454E0,7.3749596E-1,-4.521484E-1,1.3901217E0,4.1751512E6,4.2529465E6,6.055054E6,7.7948105E6,3.2731298E6,-6.890174E-1,-3.871008E-1,-8.9831054E-2,1.4148813E0,1.8813194E-1,2.8436748E6,-4.0482157E-1,-3.7551388E-1,1.393604E6,1.5630814E6,-1.678409E0,1.529472E6,-1.6257005E-2,1.936781E6,1.8744106E6,2.2311945E6,1.0616434E6,1.2592832E6,1.2831412E6,1.4187165E6,1.2107299E6,1.4171265E6,1.5958411E6,1.7634165E6],"split_indices":[12,12,13,12,13,12,2,13,13,12,0,0,0,0,0,13,12,12,13,13,0,12,12,0,0,13,0,12,0,0,0,0,0,0,0,0,0,0,0],"split_type":[0,0,0,0,0,0,0,0,0,0,0,0,0,0,0,0,0,0,0,0,0,0,0,0,0,0,0,0,0,0,0,0,0,0,0,0,0,0,0],"sum_hessian":[7.405E3,7.2625E3,1.425E2,6.765E3,4.975E2,7.5E1,6.75E1,3.575E3,3.19E3,4.75E2,2.25E1,4E1,3.5E1,6.5E1,2.5E0,2.56E3,1.015E3,1.27E3,1.92E3,4.075E2,6.75E1,7.125E2,1.8475E3,3.375E2,6.775E2,5.175E2,7.525E2,1.735E3,1.85E2,2.85E2,1.225E2,1E2,6.125E2,6.85E2,1.1625E3,7.25E1,4.45E2,1.0875E3,6.475E2],"tree_param":{"num_deleted":"0","num_feature":"14","num_nodes":"39","size_leaf_vector":"1"}},{"base_weights":[3.4760336E7,3.260098E7,1.2790427E8,3.1087738E7,4.1784364E7,8.85178E7,1.4478525E8,2.9420886E7,3.3907224E7,3.964244E7,5.78044E7,3.3579488E6,5.182139E6,5.422704E6,7.0034995E6,2.7630054E7,3.0672064E7,3.3095912E7,1.7069386E6,1.5091226E6,4.067564E7,5.3694804E7,4.117327E6,2.453796E7,2.8179606E7,2.9624334E7,3.2868812E7,1.3306352E6,3.3620144E7,3.968118E7,2.0713238E6,1.7094822E6,2.507519E6,3.4424466E5,1.1100688E6,1.2222026E6,1.34389E6,1.1483832E6,1.346666E6,1.4310444E6,1.555155E6,1.4667066E6,1.5645051E6,1.7278386E6,1.9220041E6],"categories":[],"categories_nodes":[],"categories_segments":[],"categories_sizes":[],"default_left":[0,0,0,0,0,0,0,0,0,0,0,0,0,0,0,0,0,0,0,0,0,0,0,0,0,0,0,0,0,0,0,0,0,0,0,0,0,0,0,0,0,0,0,0,0],"id":29,"left_children":[1,3,5,7,9,11,13,15,17,19,21,-1,-1,-1,-1,23,25,27,-1,-1,29,31,-1,33,35,37,39,-1,41,43,-1,-1,-1,-1,-1,-1,-1,-1,-1,-1,-1,-1,-1,-1,-1],"loss_changes":[1.4961775E18,9.983456E16,9.6786435E16,2.8263496E16,3.2548705E16,9.568912E15,8.1014766E15,7.830722E15,6.0731525E15,4.1118986E15,1.0539712E16,0E0,0E0,0E0,0E0,1.950671E15,4.1568411E15,2.3954235E15,0E0,0E0,1.9274439E15,9.2190614E14,0E0,3.3703467E14,1.398785E15,1.03780154E15,9.895605E12,0E0,6.191625E14,6.061058E14,0E0,0E0,0E0,0E0,0E0,0E0,0E0,0E0,0E0,0E0,0E0,0E0,0E0,0E0,0E0],"parents":[2147483647,0,0,1,1,2,2,3,3,4,4,5,5,6,6,7,7,8,8,9,9,10,10,15,15,16,16,17,17,20,20,21,21,23,23,24,24,25,25,26,26,28,28,29,29],"right_children":[2,4,6,8,10,12,14,16,18,20,22,-1,-1,-1,-1,24,26,28,-1,-1,30,32,-1,34,36,38,40,-1,42,44,-1,-1,-1,-1,-1,-1,-1,-1,-1,-1,-1,-1,-1,-1,-1],"split_conditions":[2.5110753E0,1.1092719E-1,4.6966624E0,-1.7217712E-1,6.9232583E-1,3.0489292E-2,-4.7138867E-1,-3.537398E-1,7.168022E-1,-9.307093E-1,1.835454E0,3.3579488E6,5.182139E6,5.422704E6,7.0034995E6,-5.0869405E-1,4.7517657E-1,-1.2013611E0,1.7069386E6,1.5091226E6,9.737817E-1,-1.1507186E0,4.117327E6,-2.1590178E0,5.473506E-1,-1.494202E0,1.4245474E0,1.3306352E6,-5.2362718E-2,3.927679E-1,2.0713238E6,1.7094822E6,2.507519E6,3.4424466E5,1.1100688E6,1.2222026E6,1.34389E6,1.1483832E6,1.346666E6,1.4310444E6,1.555155E6,1.4667066E6,1.5645051E6,1.7278386E6,1.9220041E6],"split_indices":[11,11,11,11,11,1,1,11,1,1,2,0,0,0,0,11,6,1,0,0,1,1,0,1,1,1,6,0,11,11,0,0,0,0,0,0,0,0,0,0,0,0,0,0,0],"split_type":[0,0,0,0,0,0,0,0,0,0,0,0,0,0,0,0,0,0,0,0,0,0,0,0,0,0,0,0,0,0,0,0,0,0,0,0,0,0,0,0,0,0,0,0,0],"sum_hessian":[7.4625E3,7.295E3,1.675E2,6.2675E3,1.0275E3,5.25E1,1.15E2,3.9475E3,2.32E3,9.1E2,1.175E2,3.75E1,1.5E1,4E1,7.5E1,1.635E3,2.3125E3,1.94E3,3.8E2,1.375E2,7.725E2,1.075E2,1E1,2.55E2,1.38E3,1.5775E3,7.35E2,2.6E2,1.68E3,6.6E2,1.125E2,1.5E1,9.25E1,2.5E0,2.525E2,8.725E2,5.075E2,1.15E2,1.4625E3,4.65E2,2.7E2,9.05E2,7.75E2,4.75E2,1.85E2],"tree_param":{"num_deleted":"0","num_feature":"14","num_nodes":"45","size_leaf_vector":"1"}},{"base_weights":[3.3104834E7,3.095324E7,1.18987384E8,2.9347908E7,3.8353388E7,8.339891E7,1.3923491E8,2.7193994E7,3.121845E7,3.6754772E7,4.96615E7,3.3894192E6,4.6799955E6,1.1668348E8,6.963213E6,2.6196044E7,2.933678E7,3.065884E7,1.6167186E6,3.5386864E7,1.8522672E6,1.9458576E6,5.495247E7,3.574154E6,5.5535975E6,2.3838092E7,2.6882974E7,2.4441796E7,3.0077218E7,2.8728382E7,3.1516218E7,1.3650252E6,3.614307E7,2.0932076E6,2.7061088E6,8.7669994E5,1.0979051E6,1.0511419E6,1.2254948E6,1.1114961E6,3.705339E5,1.3023255E6,1.4293464E6,1.17471E6,1.318156E6,1.376262E6,1.4809829E6,1.5397772E6,1.6766519E6],"categories":[],"categories_nodes":[],"categories_segments":[],"categories_sizes":[],"default_left":[0,0,0,0,0,0,0,0,0,0,0,0,0,0,0,0,0,0,0,0,0,0,0,0,0,0,0,0,0,0,0,0,0,0,0,0,0,0,0,0,0,0,0,0,0,0,0,0,0],"id":30,"left_children":[1,3,5,7,9,11,13,15,17,19,21,-1,-1,23,-1,25,27,29,-1,31,-1,-1,33,-1,-1,35,37,39,41,43,45,-1,47,-1,-1,-1,-1,-1,-1,-1,-1,-1,-1,-1,-1,-1,-1,-1,-1],"loss_changes":[1.3687512E18,8.479159E16,1.1663427E17,2.300893E16,2.110595E16,2.0333406E15,1.8085042E16,5.025043E15,7.067111E15,5.0859285E15,2.4545223E15,0E0,0E0,1.07525365E15,0E0,2.3227183E15,2.2845103E15,3.6369096E15,0E0,2.0228265E15,0E0,0E0,1.941497E14,0E0,0E0,5.0543175E14,1.04948385E15,2.6298085E14,3.4126092E14,4.011156E14,1.3460771E15,0E0,8.981636E13,0E0,0E0,0E0,0E0,0E0,0E0,0E0,0E0,0E0,0E0,0E0,0E0,0E0,0E0,0E0,0E0],"parents":[2147483647,0,0,1,1,2,2,3,3,4,4,5,5,6,6,7,7,8,8,9,9,10,10,13,13,15,15,16,16,17,17,19,19,22,22,25,25,26,26,27,27,28,28,29,29,30,30,32,32],"right_children":[2,4,6,8,10,12,14,16,18,20,22,-1,-1,24,-1,26,28,30,-1,32,-1,-1,34,-1,-1,36,38,40,42,44,46,-1,48,-1,-1,-1,-1,-1,-1,-1,-1,-1,-1,-1,-1,-1,-1,-1,-1],"split_conditions":[2.5630653E0,6.901635E-2,4.8548565E0,-2.663818E-1,6.0738397E-1,1.974991E-1,7.296586E0,7.1696955E-1,1.1163114E0,2.936923E-1,-1.8024138E-1,3.3894192E6,4.6799955E6,-7.8332984E-1,6.963213E6,-4.573061E-1,-5.5728585E-1,-6.58065E-1,1.6167186E6,-1.2013611E0,1.8522672E6,1.9458576E6,9.3800515E-1,3.574154E6,5.5535975E6,-1.0801328E0,-1.3318186E0,2.4150403E0,1.6057824E0,-1.7058176E0,-9.5226385E-2,1.3650252E6,1.7795579E-1,2.0932076E6,2.7061088E6,8.7669994E5,1.0979051E6,1.0511419E6,1.2254948E6,1.1114961E6,3.705339E5,1.3023255E6,1.4293464E6,1.17471E6,1.318156E6,1.376262E6,1.4809829E6,1.5397772E6,1.6766519E6],"split_indices":[0,0,0,0,0,1,0,6,6,1,10,0,0,1,0,0,0,6,0,1,0,0,0,0,0,1,1,1,1,1,0,0,0,0,0,0,0,0,0,0,0,0,0,0,0,0,0,0,0],"split_type":[0,0,0,0,0,0,0,0,0,0,0,0,0,0,0,0,0,0,0,0,0,0,0,0,0,0,0,0,0,0,0,0,0,0,0,0,0,0,0,0,0,0,0,0,0,0,0,0,0],"sum_hessian":[7.43E3,7.25E3,1.8E2,5.9625E3,1.2875E3,6.75E1,1.125E2,2.78E3,3.1825E3,1.1325E3,1.55E2,5.25E1,1.5E1,5E1,6.25E1,1.9075E3,8.725E2,2.8525E3,3.3E2,8.725E2,2.6E2,7.5E1,8E1,1E1,4E1,4.4E2,1.4675E3,1.2E2,7.525E2,8.9E2,1.9625E3,1.2E2,7.525E2,3.5E1,4.5E1,5.5E1,3.85E2,1.4E2,1.3275E3,1.175E2,2.5E0,4.625E2,2.9E2,1.675E2,7.225E2,1.1925E3,7.7E2,2.9E2,4.625E2],"tree_param":{"num_deleted":"0","num_feature":"14","num_nodes":"49","size_leaf_vector":"1"}},{"base_weights":[3.1735276E7,2.9616498E7,1.1461475E8,2.784213E7,3.591751E7,7.871292E7,1.3234915E8,2.5734934E7,2.9417242E7,3.4469188E7,4.818397E7,3.0859918E6,4.441592E6,5.01444E6,1.4516011E8,2.3783584E7,2.6687662E7,2.8146804E7,3.106547E7,3.2773332E7,3.7510332E7,4.479498E7,2.7384042E6,3.6136698E6,6.6871335E6,2.0459656E7,2.4403174E7,2.4969288E7,2.7695362E7,1.1985535E6,2.8851684E7,3.0305022E7,1.5424906E6,1.3000956E6,3.3561756E7,1.6227354E6,1.8514772E6,1.5633139E6,2.1152722E6,5.398194E5,9.3818625E5,9.557768E5,1.1196248E6,8.6643856E5,1.1328518E6,1.2095595E6,1.3392934E6,1.2584862E6,1.3514838E6,1.3142495E6,1.4156871E6,1.4356309E6,1.5773354E6],"categories":[],"categories_nodes":[],"categories_segments":[],"categories_sizes":[],"default_left":[0,0,0,0,0,0,0,0,0,0,0,0,0,0,0,0,0,0,0,0,0,0,0,0,0,0,0,0,0,0,0,0,0,0,0,0,0,0,0,0,0,0,0,0,0,0,0,0,0,0,0,0,0],"id":31,"left_children":[1,3,5,7,9,11,13,15,17,19,21,-1,-1,-1,23,25,27,29,31,33,35,37,-1,-1,-1,39,41,43,45,-1,47,49,-1,-1,51,-1,-1,-1,-1,-1,-1,-1,-1,-1,-1,-1,-1,-1,-1,-1,-1,-1,-1],"loss_changes":[1.2929674E18,7.933911E16,1.044602E17,1.7765634E16,2.605389E16,4.7828756E15,1.3067283E16,3.730368E15,5.6748544E15,5.828511E15,3.757581E15,0E0,0E0,0E0,1.578349E15,1.05604656E15,1.9643462E15,1.0246074E15,2.1393747E15,1.6484428E15,8.4628036E14,1.0127533E15,0E0,0E0,0E0,1.3998587E14,3.7953767E14,1.3214755E14,7.374974E14,0E0,2.7961955E14,3.3356434E14,0E0,0E0,5.2735326E14,0E0,0E0,0E0,0E0,0E0,0E0,0E0,0E0,0E0,0E0,0E0,0E0,0E0,0E0,0E0,0E0,0E0,0E0],"parents":[2147483647,0,0,1,1,2,2,3,3,4,4,5,5,6,6,7,7,8,8,9,9,10,10,14,14,15,15,16,16,17,17,18,18,19,19,20,20,21,21,25,25,26,26,27,27,28,28,30,30,31,31,34,34],"right_children":[2,4,6,8,10,12,14,16,18,20,22,-1,-1,-1,24,26,28,30,32,34,36,38,-1,-1,-1,40,42,44,46,-1,48,50,-1,-1,52,-1,-1,-1,-1,-1,-1,-1,-1,-1,-1,-1,-1,-1,-1,-1,-1,-1,-1],"split_conditions":[2.5630653E0,2.0013455E-2,4.8548565E0,-2.9598758E-1,6.0738397E-1,-5.406695E-1,-3.459479E-1,-4.9444893E-1,-3.1645145E-2,-5.041013E-4,1.5948211E0,3.0859918E6,4.441592E6,5.01444E6,3.6125789E0,-5.10761E-1,-4.3638358E-1,-8.579875E-1,1.4245474E0,-1.2018641E0,9.7238934E-1,-1.1509019E0,2.7384042E6,3.6136698E6,6.6871335E6,-5.9000933E-1,-1.4139774E0,-5.9000933E-1,1.3920345E0,1.1985535E6,-1.2518479E-1,-1.5060438E-1,1.5424906E6,1.3000956E6,1.7020556E-1,1.6227354E6,1.8514772E6,1.5633139E6,2.1152722E6,5.398194E5,9.3818625E5,9.557768E5,1.1196248E6,8.6643856E5,1.1328518E6,1.2095595E6,1.3392934E6,1.2584862E6,1.3514838E6,1.3142495E6,1.4156871E6,1.4356309E6,1.5773354E6],"split_indices":[0,0,0,0,0,13,13,13,6,6,0,0,0,0,12,0,11,6,6,6,6,6,0,0,0,11,6,11,6,0,0,0,0,0,0,0,0,0,0,0,0,0,0,0,0,0,0,0,0,0,0,0,0],"split_type":[0,0,0,0,0,0,0,0,0,0,0,0,0,0,0,0,0,0,0,0,0,0,0,0,0,0,0,0,0,0,0,0,0,0,0,0,0,0,0,0,0,0,0,0,0,0,0,0,0,0,0,0,0],"sum_hessian":[7.385E3,7.2025E3,1.825E2,5.625E3,1.5775E3,6.25E1,1.2E2,2.415E3,3.21E3,1.415E3,1.625E2,4.5E1,1.75E1,5E1,7E1,8.025E2,1.6125E3,1.825E3,1.385E3,9.175E2,4.975E2,1.325E2,3E1,5E0,6.5E1,1.325E2,6.7E2,6.075E2,1.005E3,5.95E2,1.23E3,1.13E3,2.55E2,1.625E2,7.55E2,3.65E2,1.325E2,2.75E1,1.05E2,7.5E0,1.25E2,9.5E1,5.75E2,2.5E1,5.825E2,7.325E2,2.725E2,7.2E2,5.1E2,5.95E2,5.35E2,3.7E2,3.85E2],"tree_param":{"num_deleted":"0","num_feature":"14","num_nodes":"53","size_leaf_vector":"1"}},{"base_weights":[3.0257784E7,2.8489498E7,1.1811517E8,2.7231356E7,3.8824612E7,9.689194E7,1.3678202E8,2.5305236E7,2.9522418E7,3.6258364E7,5.8326012E7,2.5429725E6,1.0216669E8,6.3780755E6,3.5461775E6,2.4583524E7,2.763598E7,2.8751372E7,3.2060504E7,3.467731E7,4.0736796E7,2.1459522E6,6.2605748E7,2.5766525E6,4.7169605E6,2.2917942E7,2.551494E7,1.0762205E6,1.2690135E6,2.7566532E7,3.0114994E7,1.3608099E6,1.5306745E6,1.502928E6,1.7817275E6,1.6748149E6,1.9985311E6,2.5782488E6,3.9039395E6,8.188647E5,1.0456131E6,1.03183575E6,1.1751804E6,1.1412941E6,1.2582584E6,1.2123489E6,1.3760769E6],"categories":[],"categories_nodes":[],"categories_segments":[],"categories_sizes":[],"default_left":[0,0,0,0,0,0,0,0,0,0,0,0,0,0,0,0,0,0,0,0,0,0,0,0,0,0,0,0,0,0,0,0,0,0,0,0,0,0,0,0,0,0,0,0,0,0,0],"id":32,"left_children":[1,3,5,7,9,11,13,15,17,19,21,-1,23,-1,-1,25,27,29,31,33,35,-1,37,-1,-1,39,41,-1,-1,43,45,-1,-1,-1,-1,-1,-1,-1,-1,-1,-1,-1,-1,-1,-1,-1,-1],"loss_changes":[1.1698705E18,9.506707E16,4.3006848E16,2.8266795E16,3.7558493E16,8.7699796E15,8.478884E15,5.237936E15,4.786724E15,3.34066E15,5.695814E14,0E0,3.916323E14,0E0,0E0,3.5779483E15,9.565751E14,2.7541392E15,1.2247185E15,1.7689768E15,3.2731087E14,0E0,1.8849065E15,0E0,0E0,9.952298E14,2.0102509E15,0E0,0E0,2.4223616E14,5.831535E14,0E0,0E0,0E0,0E0,0E0,0E0,0E0,0E0,0E0,0E0,0E0,0E0,0E0,0E0,0E0,0E0],"parents":[2147483647,0,0,1,1,2,2,3,3,4,4,5,5,6,6,7,7,8,8,9,9,10,10,12,12,15,15,16,16,17,17,18,18,19,19,20,20,22,22,25,25,26,26,29,29,30,30],"right_children":[2,4,6,8,10,12,14,16,18,20,22,-1,24,-1,-1,26,28,30,32,34,36,-1,38,-1,-1,40,42,-1,-1,44,46,-1,-1,-1,-1,-1,-1,-1,-1,-1,-1,-1,-1,-1,-1,-1,-1],"split_conditions":[3.5428612E0,2.09719E-1,-3.459479E-1,-2.003028E-1,1.3793536E0,4.6966624E0,1.835454E0,7.2386944E-1,7.9076385E-1,5.155926E-1,1.5948211E0,2.5429725E6,-1.6199659E0,6.3780755E6,3.5461775E6,-3.7507948E-1,-4.831981E-1,-5.045057E-2,-1.163838E-1,9.3665564E-1,-5.9459843E-3,2.1459522E6,-5.187475E-1,2.5766525E6,4.7169605E6,-1.3504541E0,-1.2463881E0,1.0762205E6,1.2690135E6,-9.525852E-1,-1.1571189E0,1.3608099E6,1.5306745E6,1.502928E6,1.7817275E6,1.6748149E6,1.9985311E6,2.5782488E6,3.9039395E6,8.188647E5,1.0456131E6,1.03183575E6,1.1751804E6,1.1412941E6,1.2582584E6,1.2123489E6,1.3760769E6],"split_indices":[0,0,13,0,11,11,2,13,13,11,0,0,13,0,0,11,11,0,11,13,13,0,13,0,0,13,13,0,0,3,3,0,0,0,0,0,0,0,0,0,0,0,0,0,0,0,0],"split_type":[0,0,0,0,0,0,0,0,0,0,0,0,0,0,0,0,0,0,0,0,0,0,0,0,0,0,0,0,0,0,0,0,0,0,0,0,0,0,0,0,0,0,0,0,0,0,0],"sum_hessian":[7.555E3,7.4075E3,1.475E2,6.6075E3,8E2,7.25E1,7.5E1,3.5975E3,3.01E3,7.1E2,9E1,1E1,6.25E1,6.75E1,7.5E0,2.7575E3,8.4E2,2.32E3,6.9E2,5.325E2,1.775E2,3E1,6E1,5E0,5.75E1,1E3,1.7575E3,1.175E2,7.225E2,1.255E3,1.065E3,3.675E2,3.225E2,4.3E2,1.025E2,9.75E1,8E1,5.25E1,7.5E0,6.75E1,9.325E2,3.4E2,1.4175E3,2.025E2,1.0525E3,1.45E2,9.2E2],"tree_param":{"num_deleted":"0","num_feature":"14","num_nodes":"47","size_leaf_vector":"1"}},{"base_weights":[2.9024538E7,2.7117672E7,1.0631218E8,2.5992504E7,3.5639156E7,8.240707E7,1.2945276E8,2.445075E7,2.8399488E7,3.364882E7,5.161888E7,2.8410538E6,9.767035E7,6.075611E6,3.923297E6,2.2772944E7,2.5651288E7,2.7067118E7,3.090631E7,3.1642102E7,1.6498128E6,4.756489E7,3.7575562E6,2.4831455E6,4.5457455E6,2.118352E7,2.3797612E7,2.3994706E7,2.693254E7,1.1567362E6,1.2618452E6,1.3546672E6,1.552299E6,1.0851889E6,3.2098654E7,1.1824396E6,2.2160882E6,8.0473575E5,9.736694E5,9.6392606E5,1.0940036E6,9.3312175E5,1.0993479E6,1.177958E6,1.2923772E6,1.3996319E6,1.5985216E6],"categories":[],"categories_nodes":[],"categories_segments":[],"categories_sizes":[],"default_left":[0,0,0,0,0,0,0,0,0,0,0,0,0,0,0,0,0,0,0,0,0,0,0,0,0,0,0,0,0,0,0,0,0,0,0,0,0,0,0,0,0,0,0,0,0,0,0],"id":33,"left_children":[1,3,5,7,9,11,13,15,17,19,21,-1,23,-1,-1,25,27,29,31,33,-1,35,-1,-1,-1,37,39,41,43,-1,-1,-1,-1,-1,45,-1,-1,-1,-1,-1,-1,-1,-1,-1,-1,-1,-1],"loss_changes":[1.0928343E18,6.850947E16,8.605163E16,2.2986665E16,2.4749663E16,1.9427958E16,6.723376E15,7.197403E15,7.341714E15,3.165975E15,7.0216015E15,0E0,2.3505497E14,0E0,0E0,2.0760154E15,4.055686E15,1.3117174E15,1.227536E15,6.559961E14,0E0,1.4433667E15,0E0,0E0,0E0,5.1804178E14,5.851807E14,8.157002E14,8.178305E14,0E0,0E0,0E0,0E0,0E0,1.443109E14,0E0,0E0,0E0,0E0,0E0,0E0,0E0,0E0,0E0,0E0,0E0,0E0],"parents":[2147483647,0,0,1,1,2,2,3,3,4,4,5,5,6,6,7,7,8,8,9,9,10,10,12,12,15,15,16,16,17,17,18,18,19,19,21,21,25,25,26,26,27,27,28,28,34,34],"right_children":[2,4,6,8,10,12,14,16,18,20,22,-1,24,-1,-1,26,28,30,32,34,-1,36,-1,-1,-1,38,40,42,44,-1,-1,-1,-1,-1,46,-1,-1,-1,-1,-1,-1,-1,-1,-1,-1,-1,-1],"split_conditions":[2.5110753E0,1.568242E-1,-4.6900702E-1,-1.7217712E-1,9.8733604E-1,4.6966624E0,9.42886E-1,-9.972594E-2,2.801429E-1,4.3475814E-2,3.195451E0,2.8410538E6,-1.6199659E0,6.075611E6,3.923297E6,-3.4123287E-1,-3.537398E-1,-6.6434216E-1,1.614692E0,-1.7771789E0,1.6498128E6,-1.7729393E0,3.7575562E6,2.4831455E6,4.5457455E6,-1.531343E0,-1.3728158E0,-5.2589387E-1,1.1248529E0,1.1567362E6,1.2618452E6,1.3546672E6,1.552299E6,1.0851889E6,5.155926E-1,1.1824396E6,2.2160882E6,8.0473575E5,9.736694E5,9.6392606E5,1.0940036E6,9.3312175E5,1.0993479E6,1.177958E6,1.2923772E6,1.3996319E6,1.5985216E6],"split_indices":[11,11,13,11,11,11,2,13,13,13,9,0,13,0,0,11,11,13,13,1,0,13,0,0,0,13,13,11,13,0,0,0,0,0,11,0,0,0,0,0,0,0,0,0,0,0,0],"split_type":[0,0,0,0,0,0,0,0,0,0,0,0,0,0,0,0,0,0,0,0,0,0,0,0,0,0,0,0,0,0,0,0,0,0,0,0,0,0,0,0,0,0,0,0,0,0,0],"sum_hessian":[7.4375E3,7.26E3,1.775E2,6.4175E3,8.425E2,9E1,8.75E1,3.92E3,2.4975E3,7.525E2,9E1,4.25E1,4.75E1,7.5E1,1.25E1,1.645E3,2.275E3,1.64E3,8.575E2,4.6E2,2.925E2,8.25E1,7.5E0,5E0,4.25E1,6.55E2,9.9E2,1.0025E3,1.2725E3,6.975E2,9.425E2,7.1E2,1.475E2,3E1,4.3E2,7.5E0,7.5E1,8.5E1,5.7E2,1.85E2,8.05E2,1.25E2,8.775E2,9.075E2,3.65E2,3.425E2,8.75E1],"tree_param":{"num_deleted":"0","num_feature":"14","num_nodes":"47","size_leaf_vector":"1"}},{"base_weights":[2.7588008E7,2.5958366E7,1.08160344E8,2.5248146E7,4.252659E7,8.392078E7,5.5738875E6,2.3756474E7,2.8861662E7,3.854415E7,5.7062876E7,2.6681825E6,4.1469755E6,2.2051164E7,2.4919334E7,2.8154578E7,3.36686E7,1.6235868E6,2.0751009E6,2.3286775E6,3.3859712E6,2.0306826E7,2.2896304E7,2.3271796E7,2.5973276E7,2.5565834E7,2.8966502E7,1.4279278E6,1.6716414E6,7.224063E5,9.3937456E5,9.486992E5,1.0598996E6,9.411861E5,1.0666912E6,1.1457639E6,1.3011531E6,1.0486326E6,1.1854044E6,1.2418941E6,1.3779654E6],"categories":[],"categories_nodes":[],"categories_segments":[],"categories_sizes":[],"default_left":[0,0,0,0,0,0,0,0,0,0,0,0,0,0,0,0,0,0,0,0,0,0,0,0,0,0,0,0,0,0,0,0,0,0,0,0,0,0,0,0,0],"id":34,"left_children":[1,3,5,7,9,11,-1,13,15,17,19,-1,-1,21,23,25,27,-1,-1,-1,-1,29,31,33,35,37,39,-1,-1,-1,-1,-1,-1,-1,-1,-1,-1,-1,-1,-1,-1],"loss_changes":[9.674537E17,8.400764E16,4.317782E16,3.6658817E16,1.4507678E16,5.8538686E15,0E0,9.114402E15,5.7493463E15,2.4095454E15,1.2407817E15,0E0,0E0,2.4033263E15,4.347194E15,2.8394888E15,2.9499553E14,0E0,0E0,0E0,0E0,1.2078135E15,1.0056408E15,5.7813696E14,1.783133E15,2.5443386E13,2.0241322E15,0E0,0E0,0E0,0E0,0E0,0E0,0E0,0E0,0E0,0E0,0E0,0E0,0E0,0E0],"parents":[2147483647,0,0,1,1,2,2,3,3,4,4,5,5,7,7,8,8,9,9,10,10,13,13,14,14,15,15,16,16,21,21,22,22,23,23,24,24,25,25,26,26],"right_children":[2,4,6,8,10,12,-1,14,16,18,20,-1,-1,22,24,26,28,-1,-1,-1,-1,30,32,34,36,38,40,-1,-1,-1,-1,-1,-1,-1,-1,-1,-1,-1,-1,-1,-1],"split_conditions":[3.5428612E0,5.036023E-1,6.4860306E0,-6.854834E-2,1.5948211E0,-3.3898413E-1,5.5738875E6,-3.3285248E-1,8.4919965E-1,1.7375714E-1,1.9656727E-1,2.6681825E6,4.1469755E6,-5.187475E-1,-3.8840047E-1,-8.252142E-1,1.5484467E-1,1.6235868E6,2.0751009E6,2.3286775E6,3.3859712E6,-5.3918463E-1,-4.615182E-1,-1.4934608E0,1.4245474E0,-1.7067809E0,1.0220597E-1,1.4279278E6,1.6716414E6,7.224063E5,9.3937456E5,9.486992E5,1.0598996E6,9.411861E5,1.0666912E6,1.1457639E6,1.3011531E6,1.0486326E6,1.1854044E6,1.2418941E6,1.3779654E6],"split_indices":[0,0,0,0,0,3,0,0,6,6,6,0,0,13,6,6,0,0,0,0,0,0,12,6,6,6,0,0,0,0,0,0,0,0,0,0,0,0,0,0,0],"split_type":[0,0,0,0,0,0,0,0,0,0,0,0,0,0,0,0,0,0,0,0,0,0,0,0,0,0,0,0,0,0,0,0,0,0,0,0,0,0,0,0,0],"sum_hessian":[7.3925E3,7.2475E3,1.45E2,6.9525E3,2.95E2,6E1,8.5E1,4.9275E3,2.025E3,2.35E2,6E1,1.75E1,4.25E1,2.0075E3,2.92E3,1.7725E3,2.525E2,1.825E2,5.25E1,5E1,1E1,6.65E2,1.3425E3,1.15E3,1.77E3,4.325E2,1.34E3,1.7E2,8.25E1,8.25E1,5.825E2,3.675E2,9.75E2,1.875E2,9.625E2,1.5175E3,2.525E2,1.2E2,3.125E2,7.45E2,5.95E2],"tree_param":{"num_deleted":"0","num_feature":"14","num_nodes":"41","size_leaf_vector":"1"}},{"base_weights":[2.643356E7,2.4821558E7,1.0446454E8,2.4194408E7,4.222131E7,6.836995E7,1.1365603E8,2.2661752E7,2.727431E7,3.920312E7,7.763477E7,2.026721E6,3.4170362E6,4.2338965E6,1.2625529E8,2.104883E7,2.3715972E7,2.4772002E7,2.8635018E7,1.5768775E6,2.0982968E6,1.983127E6,3.871115E6,2.453297E6,5.758928E6,1.8872622E7,2.1895294E7,2.1932384E7,2.4915822E7,9.885617E5,2.5250838E7,2.7830644E7,3.1932422E7,6.334863E5,8.639695E5,9.5877694E5,1.0875646E6,8.9334906E5,1.0108842E6,1.090981E6,1.1971871E6,1.1008565E6,1.231654E6,1.200956E6,1.3390416E6,1.3536374E6,1.564848E6],"categories":[],"categories_nodes":[],"categories_segments":[],"categories_sizes":[],"default_left":[0,0,0,0,0,0,0,0,0,0,0,0,0,0,0,0,0,0,0,0,0,0,0,0,0,0,0,0,0,0,0,0,0,0,0,0,0,0,0,0,0,0,0,0,0,0,0],"id":35,"left_children":[1,3,5,7,9,11,13,15,17,19,21,-1,-1,-1,23,25,27,29,31,-1,-1,-1,-1,-1,-1,33,35,37,39,-1,41,43,45,-1,-1,-1,-1,-1,-1,-1,-1,-1,-1,-1,-1,-1,-1],"loss_changes":[9.388631E17,7.8855874E16,4.0837786E16,3.2708272E16,2.3464403E16,1.8436233E15,1.5012045E16,7.458537E15,7.1458635E15,5.338129E15,7.168816E14,0E0,0E0,0E0,1.0871421E14,2.9741102E15,5.4566013E15,4.5705324E14,2.9483404E15,0E0,0E0,0E0,0E0,0E0,0E0,5.1567095E14,1.1879536E15,7.463966E14,1.1526318E15,0E0,3.748991E14,1.7454747E15,2.6395151E14,0E0,0E0,0E0,0E0,0E0,0E0,0E0,0E0,0E0,0E0,0E0,0E0,0E0,0E0],"parents":[2147483647,0,0,1,1,2,2,3,3,4,4,5,5,6,6,7,7,8,8,9,9,10,10,14,14,15,15,16,16,17,17,18,18,25,25,26,26,27,27,28,28,30,30,31,31,32,32],"right_children":[2,4,6,8,10,12,14,16,18,20,22,-1,-1,-1,24,26,28,30,32,-1,-1,-1,-1,-1,-1,34,36,38,40,-1,42,44,46,-1,-1,-1,-1,-1,-1,-1,-1,-1,-1,-1,-1,-1,-1],"split_conditions":[3.5265238E0,5.155926E-1,4.6966624E0,-1.07735656E-1,2.9331887E0,-1.0367337E0,-3.459479E-1,-3.3442938E-1,-4.6900702E-1,1.3901217E0,1.6698164E0,2.026721E6,3.4170362E6,4.2338965E6,-1.0955688E0,-3.2691488E-1,-2.9121047E-1,-1.7412345E0,1.0239072E0,1.5768775E6,2.0982968E6,1.983127E6,3.871115E6,2.453297E6,5.758928E6,-5.207076E-1,1.1773717E0,-1.3504541E0,1.0565212E0,9.885617E5,1.4316224E-1,1.1748735E-1,7.91907E-2,6.334863E5,8.639695E5,9.5877694E5,1.0875646E6,8.9334906E5,1.0108842E6,1.090981E6,1.1971871E6,1.1008565E6,1.231654E6,1.200956E6,1.3390416E6,1.3536374E6,1.564848E6],"split_indices":[11,11,11,11,13,13,13,11,13,12,11,0,0,0,1,13,13,1,13,0,0,0,0,0,0,11,13,13,13,0,11,11,11,0,0,0,0,0,0,0,0,0,0,0,0,0,0],"split_type":[0,0,0,0,0,0,0,0,0,0,0,0,0,0,0,0,0,0,0,0,0,0,0,0,0,0,0,0,0,0,0,0,0,0,0,0,0,0,0,0,0,0,0,0,0,0,0],"sum_hessian":[7.4875E3,7.3375E3,1.5E2,7.085E3,2.525E2,3.25E1,1.175E2,4.7375E3,2.3475E3,2.35E2,1.75E1,1E1,2.25E1,5E1,6.75E1,1.8825E3,2.855E3,8.35E2,1.5125E3,1.55E2,8E1,5E0,1.25E1,2.5E0,6.5E1,5.35E2,1.3475E3,1.1575E3,1.6975E3,1.3E2,7.05E2,1.225E3,2.875E2,3.75E1,4.975E2,1.08E3,2.675E2,2.45E2,9.125E2,1.2275E3,4.7E2,5.25E2,1.8E2,7.8E2,4.45E2,1.825E2,1.05E2],"tree_param":{"num_deleted":"0","num_feature":"14","num_nodes":"47","size_leaf_vector":"1"}},{"base_weights":[2.5078816E7,2.3532622E7,9.321944E7,2.2166368E7,2.931547E7,7.619269E7,5.333116E6,2.0555032E7,2.364213E7,2.7981138E7,3.992603E7,6.9918E7,4.9564815E6,1.9995726E7,2.2880714E7,2.192086E7,2.4579786E7,2.6218214E7,3.0255742E7,3.5768708E7,2.0785409E6,2.477187E6,3.3622515E6,1.812291E7,2.0584258E7,1.724111E7,2.3450054E7,8.827123E5,2.233027E7,2.412212E7,1.260461E6,1.0139356E6,2.682208E7,2.9497152E7,1.5856946E6,1.4528824E6,4.1782E7,6.21519E5,8.291861E5,8.7509344E5,9.6338406E5,7.963729E5,2.4023044E5,9.683122E5,1.0927144E6,9.687393E5,1.0447913E6,1.052063E6,1.128898E6,1.181544E6,1.3366199E6,1.273392E6,1.4501861E6,2.0037181E6,9.942762E5],"categories":[],"categories_nodes":[],"categories_segments":[],"categories_sizes":[],"default_left":[0,0,0,0,0,0,0,0,0,0,0,0,0,0,0,0,0,0,0,0,0,0,0,0,0,0,0,0,0,0,0,0,0,0,0,0,0,0,0,0,0,0,0,0,0,0,0,0,0,0,0,0,0,0,0],"id":36,"left_children":[1,3,5,7,9,11,-1,13,15,17,19,21,-1,23,25,27,29,31,33,35,-1,-1,-1,37,39,41,43,-1,45,47,-1,-1,49,51,-1,-1,53,-1,-1,-1,-1,-1,-1,-1,-1,-1,-1,-1,-1,-1,-1,-1,-1,-1,-1],"loss_changes":[7.766219E17,5.6372786E16,5.9666235E16,1.3342574E16,1.8178913E16,1.2317829E16,0E0,3.104471E15,4.2739391E15,3.975078E15,1.9547427E15,1.3933561E15,0E0,2.0584919E15,1.2364695E15,4.994188E14,2.2722782E15,8.3569756E14,7.5079464E14,3.957297E14,0E0,0E0,0E0,4.1899983E14,1.1144925E15,1.781327E14,1.5095951E14,0E0,5.098985E13,5.4391466E14,0E0,0E0,3.539053E13,4.3193627E14,0E0,0E0,5.0552624E14,0E0,0E0,0E0,0E0,0E0,0E0,0E0,0E0,0E0,0E0,0E0,0E0,0E0,0E0,0E0,0E0,0E0,0E0],"parents":[2147483647,0,0,1,1,2,2,3,3,4,4,5,5,7,7,8,8,9,9,10,10,11,11,13,13,14,14,15,15,16,16,17,17,18,18,19,19,23,23,24,24,25,25,26,26,28,28,29,29,32,32,33,33,36,36],"right_children":[2,4,6,8,10,12,-1,14,16,18,20,22,-1,24,26,28,30,32,34,36,-1,-1,-1,38,40,42,44,-1,46,48,-1,-1,50,52,-1,-1,54,-1,-1,-1,-1,-1,-1,-1,-1,-1,-1,-1,-1,-1,-1,-1,-1,-1,-1],"split_conditions":[2.5630653E0,4.92367E-2,7.296586E0,-2.663818E-1,6.562253E-1,1.6057824E0,5.333116E6,1.250222E0,-4.9633914E-1,-1.2150626E-1,-1.7912455E-1,3.5265238E0,4.9564815E6,-4.573061E-1,-6.0195965E-1,-1.7058176E0,1.4207942E0,-1.4137746E0,1.368293E0,1.3940659E0,2.0785409E6,2.477187E6,3.3622515E6,-6.0195965E-1,-3.6142445E-1,2.4150403E0,-4.7051057E-1,8.827123E5,-1.18429415E-1,-1.0970919E-1,1.260461E6,1.0139356E6,4.2293528E-1,3.4168154E-1,1.5856946E6,1.4528824E6,-3.3197927E-1,6.21519E5,8.291861E5,8.7509344E5,9.6338406E5,7.963729E5,2.4023044E5,9.683122E5,1.0927144E6,9.687393E5,1.0447913E6,1.052063E6,1.128898E6,1.181544E6,1.3366199E6,1.273392E6,1.4501861E6,2.0037181E6,9.942762E5],"split_indices":[0,0,0,0,0,1,0,1,1,1,1,11,0,0,0,1,1,1,1,0,0,0,0,0,1,1,0,0,0,0,0,0,0,0,0,0,1,0,0,0,0,0,0,0,0,0,0,0,0,0,0,0,0,0,0],"split_type":[0,0,0,0,0,0,0,0,0,0,0,0,0,0,0,0,0,0,0,0,0,0,0,0,0,0,0,0,0,0,0,0,0,0,0,0,0,0,0,0,0,0,0,0,0,0,0,0,0,0,0,0,0,0,0],"sum_hessian":[7.395E3,7.2325E3,1.625E2,5.855E3,1.3775E3,1E2,6.25E1,2.8075E3,3.0475E3,1.2275E3,1.5E2,8.75E1,1.25E1,2.2725E3,5.35E2,1.085E3,1.9625E3,7E2,5.275E2,9.5E1,5.5E1,2.5E1,6.25E1,5.525E2,1.72E3,5.25E1,4.825E2,1.725E2,9.125E2,1.74E3,2.225E2,1.05E2,5.95E2,4.65E2,6.25E1,6.5E1,3E1,4E1,5.125E2,7.35E2,9.85E2,5E1,2.5E0,1.55E2,3.275E2,4.95E2,4.175E2,1E3,7.4E2,5.075E2,8.75E1,3.325E2,1.325E2,2.5E1,5E0],"tree_param":{"num_deleted":"0","num_feature":"14","num_nodes":"55","size_leaf_vector":"1"}},{"base_weights":[2.4183276E7,2.2483822E7,8.765285E7,2.1373066E7,2.8614586E7,7.35847E7,5.1036295E6,1.9655728E7,2.2762294E7,2.7418192E7,3.931829E7,6.4421184E7,4.268892E6,1.9080474E7,2.2036066E7,2.113052E7,2.3654008E7,2.6782354E7,1.5207605E6,1.2399104E6,1.838195E6,2.423248E6,3.2788062E6,1.6253434E7,1.9464312E7,1.9511878E7,1.048458E6,8.518287E5,2.1493564E7,2.3220988E7,1.2124861E6,1.0354295E6,2.745591E7,4.7202203E5,7.4691106E5,8.145081E5,9.043179E5,2.3292608E5,8.853925E5,9.2959806E5,1.0167416E6,1.01212544E6,1.1010156E6,1.1924975E6,1.3701406E6],"categories":[],"categories_nodes":[],"categories_segments":[],"categories_sizes":[],"default_left":[0,0,0,0,0,0,0,0,0,0,0,0,0,0,0,0,0,0,0,0,0,0,0,0,0,0,0,0,0,0,0,0,0,0,0,0,0,0,0,0,0,0,0,0,0],"id":37,"left_children":[1,3,5,7,9,11,-1,13,15,17,19,21,-1,23,25,27,29,31,-1,-1,-1,-1,-1,33,35,37,-1,-1,39,41,-1,-1,43,-1,-1,-1,-1,-1,-1,-1,-1,-1,-1,-1,-1],"loss_changes":[8.00539E17,4.8645143E16,6.0184518E16,1.4120753E16,1.2904075E16,1.7762404E16,0E0,3.2695353E15,4.3309763E15,2.973217E15,6.065868E14,3.6528181E15,0E0,2.0387694E15,1.1399702E15,4.7760036E14,2.3568032E15,1.5701026E15,0E0,0E0,0E0,0E0,0E0,3.347068E14,1.2491139E15,3.0839154E14,0E0,0E0,3.8623782E14,1.099168E15,0E0,0E0,1.2374316E15,0E0,0E0,0E0,0E0,0E0,0E0,0E0,0E0,0E0,0E0,0E0,0E0],"parents":[2147483647,0,0,1,1,2,2,3,3,4,4,5,5,7,7,8,8,9,9,10,10,11,11,13,13,14,14,15,15,16,16,17,17,23,23,24,24,25,25,28,28,29,29,32,32],"right_children":[2,4,6,8,10,12,-1,14,16,18,20,22,-1,24,26,28,30,32,-1,-1,-1,-1,-1,34,36,38,-1,-1,40,42,-1,-1,44,-1,-1,-1,-1,-1,-1,-1,-1,-1,-1,-1,-1],"split_conditions":[2.5630653E0,1.1745865E-1,7.296586E0,-2.684514E-1,6.9232583E-1,2.3924504E-1,5.1036295E6,1.250222E0,-4.9633914E-1,9.938778E-1,-7.567915E-1,4.6966624E0,4.268892E6,-5.10761E-1,-4.7816044E-1,-1.7412345E0,1.3920302E0,-9.621527E-1,1.5207605E6,1.2399104E6,1.838195E6,2.423248E6,3.2788062E6,-1.4613575E0,-5.188527E-1,-1.1132902E0,1.048458E6,8.518287E5,-8.385608E-2,-7.7528365E-2,1.2124861E6,1.0354295E6,4.2293528E-1,4.7202203E5,7.4691106E5,8.145081E5,9.043179E5,2.3292608E5,8.853925E5,9.2959806E5,1.0167416E6,1.01212544E6,1.1010156E6,1.1924975E6,1.3701406E6],"split_indices":[0,0,0,0,11,1,0,1,1,1,1,11,0,0,0,1,1,1,0,0,0,0,0,1,1,3,0,0,0,0,0,0,0,0,0,0,0,0,0,0,0,0,0,0,0],"split_type":[0,0,0,0,0,0,0,0,0,0,0,0,0,0,0,0,0,0,0,0,0,0,0,0,0,0,0,0,0,0,0,0,0,0,0,0,0,0,0,0,0,0,0,0,0],"sum_hessian":[7.4425E3,7.25E3,1.925E2,6.1425E3,1.1075E3,1.275E2,6.5E1,2.755E3,3.3875E3,1E3,1.075E2,9.25E1,3.5E1,2.2275E3,5.275E2,1.2075E3,2.18E3,9.15E2,8.5E1,1.5E1,9.25E1,4.5E1,4.75E1,2.725E2,1.955E3,1.825E2,3.45E2,1.8E2,1.0275E3,1.935E3,2.45E2,1.45E2,7.7E2,1.75E1,2.55E2,6.3E2,1.325E3,2.5E0,1.8E2,5.975E2,4.3E2,1.235E3,7E2,5.925E2,1.775E2],"tree_param":{"num_deleted":"0","num_feature":"14","num_nodes":"45","size_leaf_vector":"1"}},{"base_weights":[2.2944038E7,2.1517494E7,8.435131E7,2.0288208E7,2.6692986E7,6.6021708E7,4.4995455E6,1.8754642E7,2.155335E7,2.5449666E7,3.5110708E7,2.6307638E6,3.3568292E6,1.8219146E7,2.1029504E7,2.0982528E7,2.3911454E7,2.4112256E7,2.8053586E7,3.2548646E7,2.0594634E6,1.6354591E7,1.8632364E7,6.812687E5,2.1236564E7,1.9727134E7,2.1624402E7,1.0347487E6,1.1726038E6,9.062488E5,2.4588368E7,2.713745E7,1.4610694E6,1.1190296E6,1.5249091E6,4.647399E5,7.5238844E5,7.846535E5,8.6868806E5,9.018605E5,1.012719E6,8.0218694E5,9.061242E5,9.384784E5,1.0106801E6,1.0483626E6,1.143193E6,1.1365322E6,1.2854658E6],"categories":[],"categories_nodes":[],"categories_segments":[],"categories_sizes":[],"default_left":[0,0,0,0,0,0,0,0,0,0,0,0,0,0,0,0,0,0,0,0,0,0,0,0,0,0,0,0,0,0,0,0,0,0,0,0,0,0,0,0,0,0,0,0,0,0,0,0,0],"id":38,"left_children":[1,3,5,7,9,11,-1,13,15,17,19,-1,-1,21,23,25,27,29,31,33,-1,35,37,-1,39,41,43,-1,-1,-1,45,47,-1,-1,-1,-1,-1,-1,-1,-1,-1,-1,-1,-1,-1,-1,-1,-1,-1],"loss_changes":[6.503287E17,4.5674263E16,4.0435915E16,1.0940141E16,1.3514097E16,3.0614527E13,0E0,2.794134E15,3.7305055E15,3.4324004E15,3.0225746E15,0E0,0E0,1.3071819E15,2.2545142E14,1.5841901E15,4.9876596E14,9.4509896E14,5.8548994E14,4.9161914E14,0E0,6.812505E14,1.01670466E15,0E0,1.8822265E14,2.6395151E14,5.3573704E14,0E0,0E0,0E0,4.971854E13,5.784462E13,0E0,0E0,0E0,0E0,0E0,0E0,0E0,0E0,0E0,0E0,0E0,0E0,0E0,0E0,0E0,0E0,0E0],"parents":[2147483647,0,0,1,1,2,2,3,3,4,4,5,5,7,7,8,8,9,9,10,10,13,13,14,14,15,15,16,16,17,17,18,18,19,19,21,21,22,22,24,24,25,25,26,26,30,30,31,31],"right_children":[2,4,6,8,10,12,-1,14,16,18,20,-1,-1,22,24,26,28,30,32,34,-1,36,38,-1,40,42,44,-1,-1,-1,46,48,-1,-1,-1,-1,-1,-1,-1,-1,-1,-1,-1,-1,-1,-1,-1,-1,-1],"split_conditions":[2.5630653E0,4.92367E-2,6.4860306E0,-2.7525634E-1,6.0738397E-1,-6.07027E-2,4.4995455E6,8.9965415E-1,6.712459E-1,6.176749E-2,6.207277E-1,2.6307638E6,3.3568292E6,-4.9450326E-1,-6.0195965E-1,-6.58065E-1,1.672829E0,-1.5813355E0,1.3682956E0,-1.1509019E0,2.0594634E6,-6.5906096E-1,-4.385424E-1,6.812687E5,1.6510851E0,-1.7067809E0,-1.18429415E-1,1.0347487E6,1.1726038E6,9.062488E5,1.7795579E-1,1.7795579E-1,1.4610694E6,1.1190296E6,1.5249091E6,4.647399E5,7.5238844E5,7.846535E5,8.6868806E5,9.018605E5,1.012719E6,8.0218694E5,9.061242E5,9.384784E5,1.0106801E6,1.0483626E6,1.143193E6,1.1365322E6,1.2854658E6],"split_indices":[0,0,0,0,0,6,0,13,6,6,6,0,0,0,0,6,6,6,6,6,0,0,6,0,6,6,0,0,0,0,0,0,0,0,0,0,0,0,0,0,0,0,0,0,0,0,0,0,0],"split_type":[0,0,0,0,0,0,0,0,0,0,0,0,0,0,0,0,0,0,0,0,0,0,0,0,0,0,0,0,0,0,0,0,0,0,0,0,0,0,0,0,0,0,0,0,0,0,0,0,0],"sum_hessian":[7.4475E3,7.28E3,1.675E2,5.8875E3,1.3925E3,8E1,8.75E1,2.67E3,3.2175E3,1.2175E3,1.75E2,4.75E1,3.25E1,2.17E3,5E2,2.6E3,6.175E2,8.125E2,4.05E2,1.45E2,3E1,4.025E2,1.7675E3,2E1,4.8E2,8.925E2,1.7075E3,4.425E2,1.75E2,9.25E1,7.2E2,3.425E2,6.25E1,2.5E1,1.2E2,2.5E1,3.775E2,6.475E2,1.12E3,2.575E2,2.225E2,1.675E2,7.25E2,9.05E2,8.025E2,2.925E2,4.275E2,1.575E2,1.85E2],"tree_param":{"num_deleted":"0","num_feature":"14","num_nodes":"49","size_leaf_vector":"1"}},{"base_weights":[2.1989238E7,2.0523626E7,8.118943E7,1.9445354E7,2.6101694E7,5.597757E7,9.336752E7,1.7846752E7,2.0661774E7,2.506383E7,3.8786284E7,4.130817E7,2.785297E6,7.714269E7,1.04836296E8,1.7314212E7,1.9763102E7,2.0262514E7,1.0659612E6,2.4462652E7,1.4077976E6,7.269309E5,1.7973525E6,2.0358611E6,1.03662006E6,1.8347179E6,3.5942518E6,2.0399684E6,4.7842925E6,1.5322845E7,1.7787926E7,1.4452645E7,2.0246222E7,1.8590494E7,2.0733592E7,2.3511952E7,2.7311684E7,3.5207825E5,6.969789E5,6.5289544E5,8.1014656E5,6.6767056E5,2.1171333E5,8.421207E5,9.45249E5,7.375687E5,8.487365E5,8.9565006E5,9.710191E5,9.220959E5,1.0852526E6,1.00357375E6,1.2614532E6],"categories":[],"categories_nodes":[],"categories_segments":[],"categories_sizes":[],"default_left":[0,0,0,0,0,0,0,0,0,0,0,0,0,0,0,0,0,0,0,0,0,0,0,0,0,0,0,0,0,0,0,0,0,0,0,0,0,0,0,0,0,0,0,0,0,0,0,0,0,0,0,0,0],"id":39,"left_children":[1,3,5,7,9,11,13,15,17,19,21,23,-1,25,27,29,31,33,-1,35,-1,-1,-1,-1,-1,-1,-1,-1,-1,37,39,41,43,45,47,49,51,-1,-1,-1,-1,-1,-1,-1,-1,-1,-1,-1,-1,-1,-1,-1,-1],"loss_changes":[6.41247E17,4.2914214E16,4.859484E16,1.135878E16,1.4219297E16,2.2447732E15,1.2382769E16,2.2746147E15,3.5786355E15,3.1342953E15,1.4788088E15,2.7297953E14,